#include <Arduino.h>
#include <arduinoMFCC.h>

#define SAMPLING_FREQ 32000
#define BUFFER_SIZE 51
#define OUTPUT_SIZE 8000
#define FRAME_SIZE 256
#define MFCC_SIZE 13
#define NBRE_FRAME 58
#define DCT_MFCC_SIZE 6



arduinoMFCC mymfcc(MFCC_SIZE,DCT_MFCC_SIZE, FRAME_SIZE, SAMPLING_FREQ);

int RC = 21;
int bouton = 13;
int ledEnreg = 12;
int ledRouge = 11;
int ledBleu = 10;


//uint16_t inputSignal[OUTPUT_SIZE];
uint16_t filteredSignal[OUTPUT_SIZE];
uint16_t tempoBuffer[BUFFER_SIZE];

float mfcc_tab[NBRE_FRAME][MFCC_SIZE];
//float dct_mfcc[DCT_MFCC_SIZE];
//const static int16_t filter_taps[BUFFER_SIZE];
unsigned long debutEnreg;
unsigned long finEnreg;
unsigned long duree1;
unsigned long debutFiltrage;
unsigned long finFiltrage;
unsigned long duree2;
int factDownSamp = 4;
int indexDownSamp = 0;
int indexSignal = 0;
bool enregistrement = false;
uint16_t adcBufferIndex = 0;


static int filter_taps[BUFFER_SIZE] = {
  238,
  -662,
  -950,
  -1202,
  -1158,
  -751,
  -121,
  450,
  680,
  453,
  -93,
  -622,
  -778,
  -410,
  310,
  949,
  1045,
  405,
  -719,
  -1678,
  -1726,
  -405,
  2150,
  5195,
  7656,
  8598,
  7656,
  5195,
  2150,
  -405,
  -1726,
  -1678,
  -719,
  405,
  1045,
  949,
  310,
  -410,
  -778,
  -622,
  -93,
  453,
  680,
  450,
  -121,
  -751,
  -1158,
  -1202,
  -950,
  -662,
  238
};


void setupTimer() {
  PMC->PMC_PCER0 |= PMC_PCER0_PID27;
  TC0->TC_CHANNEL[0].TC_SR;
  TC0->TC_CHANNEL[0].TC_CMR = TC_CMR_TCCLKS_TIMER_CLOCK4 | TC_CMR_CPCTRG;
  TC0->TC_CHANNEL[0].TC_RC = RC;
  TC0->TC_CHANNEL[0].TC_IER |= TC_IER_CPCS;
  NVIC_SetPriority(TC0_IRQn, 0);
  NVIC_EnableIRQ(TC0_IRQn);
  TC0->TC_CHANNEL[0].TC_CCR = TC_CCR_CLKEN | TC_CCR_SWTRG;
}

void setupADC() {
  PMC->PMC_PCER1 |= PMC_PCER1_PID37;
  ADC->ADC_MR = ADC_MR_PRESCAL(0) | ADC_MR_STARTUP_SUT64 | ADC_MR_TRACKTIM(15) | ADC_MR_SETTLING_AST3;
  ADC->ADC_CHER = 0xC0;
  PMC->PMC_PCER0 |= PMC_PCER0_PID27;
  TC0->TC_CHANNEL[0].TC_CMR = TC_CMR_TCCLKS_TIMER_CLOCK4 | TC_CMR_CPCTRG;
  TC0->TC_CHANNEL[0].TC_RC = RC;
  TC0->TC_CHANNEL[0].TC_IER = TC_IER_CPCS;
  NVIC_EnableIRQ(TC0_IRQn);
  TC0->TC_CHANNEL[0].TC_CCR = TC_CCR_CLKEN | TC_CCR_SWTRG;
}

void TC0_Handler() {
  TC0->TC_CHANNEL[0].TC_SR;
  ADC->ADC_CR = ADC_CR_START;
}

// void setupDAC() {
//   PMC->PMC_PCER1 |= PMC_PCER1_PID38;
//   DACC->DACC_MR = DACC_MR_TRGEN_DIS | DACC_MR_USER_SEL_CHANNEL1 | DACC_MR_WORD_HALF | DACC_MR_REFRESH(1) | DACC_MR_STARTUP_8 | DACC_MR_MAXS;
//   DACC->DACC_CHER = DACC_CHER_CH1;
// }

void CircularBuffer() {
  indexSignal = 0;
  while(indexSignal < OUTPUT_SIZE) {
    while((ADC->ADC_ISR & 0x80)==0); // attente de la fin de la conversion
    tempoBuffer[adcBufferIndex] = ADC->ADC_CDR[7]; // sauvegarde du signal dans le buffer
    //DACC->DACC_CDR = DACC_CDR_DATA(filteredSignal[indexSignal]);
    adcBufferIndex++;   // incrementation de l'index du buffer cirulaire
    uint16_t sumIndex = adcBufferIndex; // update de l'index pour le bon indexage des valeurs en fonction des coeffs
    if(adcBufferIndex == BUFFER_SIZE) { // modulo pour remettre à 0
      adcBufferIndex = 0;
    }
   
    // Calcul du filtrage sur les 15 valeurs du buffer
    uint32_t acc = 0;
    debutFiltrage = micros();
    for (int l = 0; l < BUFFER_SIZE; l++) { // multiplication des valeurs du buffer par les coeffs

      if( sumIndex > 0 ) {
        sumIndex--;
      } else {
        sumIndex=BUFFER_SIZE-1;
      }
     
      acc += filter_taps[l] * tempoBuffer[sumIndex];
     
    }

    if(indexDownSamp == factDownSamp){
      if(indexSignal < OUTPUT_SIZE){
        filteredSignal[indexSignal] = acc >> 15;
        indexDownSamp = 0;
        indexSignal++;
      }
    }
    indexDownSamp++;

    finFiltrage = micros();
  }
}

void fillFrame() {
  int debutIndex = 0;
  float frame[FRAME_SIZE];

  for (int i = 0; i < NBRE_FRAME; i++) {
    for (int j = 0; j < FRAME_SIZE; j++) {
      int signalIndex = debutIndex + j;
      if (signalIndex < OUTPUT_SIZE) {
        frame[j] = static_cast<float>(filteredSignal[signalIndex]);
       
      } else {
        frame[j] = 0;
      }

    }

    debutIndex += (FRAME_SIZE - 118);
    mymfcc.compute(frame, mfcc_tab[i]);
   
  }
  Serial.println("fin");
}


#define NumberOf(arg) ((unsigned int) (sizeof (arg) / sizeof (arg [0])))

#define _1_OPTIMIZE B00010000 //  https://github.com/GiorgosXou/NeuralNetworks#define-macro-properties
#define _2_OPTIMIZE B00100000 // MULTIPLE_BIASES_PER_LAYER
                 // Comment   this line and ...
//#define ELU                 // Uncomment this line to use ELU Activation Function
//rien pour sigmoid
//define RELU


#include <NeuralNetwork.h>

const unsigned int layers[] = {754,15,4,1};

float *output; // 3rd layer's output(s)

float bias[] = {
  -0.00807049, -0.047849786, -0.012392022, -0.01859664, -0.0006355427, -0.010089128, 0.008959201, 0.019561052, -0.014779374, -0.024431689, 0.011560615, -0.02335617, 0.011269973, -0.004026851, -0.0054472405,
  0.7153986, -0.56812227, -0.25711206, 0.23523398,
  -0.39282054,
};

float poid[] = {
  -0.055026647, -0.009215819, 0.052387778, -0.040344805, 0.0020731105, -0.072325066, 0.027708316, 0.06538821, 0.0770683, -0.061571427, 0.048534002, -0.07408217, -0.048551973, -0.071571104, -0.05743348, 0.05993024, -0.04537106, -0.025467223, -0.054728724, 0.026248813, -0.01764578, 0.057744876, -0.02514226, 0.039483715, -0.057265077, -0.006539436, 0.018963296, -0.09382818, -0.09498657, 0.0608214, 0.044974726, -0.07665514, -0.028836844, -0.08953544, 0.014312881, -0.07321862, -0.06841971, 0.06332912, 0.041130073, -0.09340591, -0.058254234, -0.033213105, 0.0343044, 0.0638202, 0.037847135, 0.0234402, 0.062873214, -0.04641544, -0.029363928, -0.045114927, 0.058629833, -0.05822769, 0.048805296, -0.08423003, -0.050905187, -0.08635173, -0.0656905, -0.040477175, 0.04872849, 0.011991946, 0.05712134, -0.007466911, 0.07454005, 0.044951115, 0.06409206, -0.037938144, -0.07824582, 0.038956866, 0.032645494, -0.013183922, -0.046672374, -0.09783608, 0.01770002, -0.04053648, -0.018402258, -0.029715039, -0.0956152, -0.09497276, 0.051103357, -0.02243716, -0.056865387, 0.052863874, 0.069985375, 0.017132662, -0.07529296, 0.034768384, -0.06871409, -0.073523745, 0.036515344, 0.04287808, 0.040896375, 0.0345917, 0.035438556, -0.034965854, 0.051007353, -0.06848891, 0.06145464, 0.057709996, -0.008855677, -0.09044901, -0.006090832, 0.042142265, -0.018874245, 0.035980493, -0.012178265, -0.09244917, 0.05181555, -0.08062537, -0.087498486, -0.03921095, -0.053455163, 0.0808373, -0.029383663, 0.029733323, -0.06967548, 0.031899296, 0.06451211, -0.008184027, 0.069220714, 0.072735555, 0.04660286, 0.03866651, 0.043978512, 0.07849869, -0.014848717, -0.053778652, -0.08970287, 0.061520644, -0.026986491, 0.005175282, -0.043053128, 0.00020835716, 0.043060657, -0.04768608, -0.09184148, 0.072548084, -0.037695218, 0.05495243, 0.0017269149, -0.057065535, 0.007345787, 0.023851102, -0.07559911, 0.020045122, -0.0816354, 0.068108246, 0.033334475, 0.034730595, 0.05049571, -0.09498997, 0.02982803, -0.002385102, -0.063934915, -0.01008953, 0.039701905, -0.0060925977, -0.08406291, -0.07148853, 0.050332792, -0.029484704, 0.042538818, 0.08088082, 0.06362071, -0.0050211456, -0.043488037, 0.051619943, -0.07695694, -0.04711575, 0.057143006, -0.08375614, -0.058558308, -0.070275605, -0.020426843, -0.040503066, -0.042061884, 0.0015725932, 0.014162951, 0.08025973, 0.037315495, 0.06510847, -0.075281, -0.037422366, 0.047817867, -0.0327971, 0.005657497, -0.020217227, -0.0107755, 0.062808, -0.068132766, -0.06251299, -0.042815566, 0.075453416, 0.06742279, 0.05818041, -0.039626457, -0.06827627, 0.07100005, 0.029235277, 0.05766555, -0.08910905, 0.042379554, -0.0064925835, -0.07697745, 0.041696385, -0.065286726, -0.083356604, 0.052313857, -0.016936276, -0.0060336892, -0.045963857, 0.006868191, -0.02954922, -0.06786672, -0.09088018, -0.0884353, 0.06259321, 0.008765744, -0.04482584, -0.07526457, -0.017453257, 0.019747868, 0.063716464, -0.072218314, -0.040287413, -0.0022758222, 0.0069136037, -0.0594657, -0.027192269, 0.011612605, 0.052802738, -0.01954785, -0.034369934, 0.06157323, 0.030915491, -0.088795334, 0.025573827, -0.08814978, -0.0043426156, 0.06837058, -0.0880065, -0.019111773, -0.059448022, -0.09490162, -0.052524563, -0.053302698, 0.051925175, -0.018576657, 0.015017567, -0.08223732, -0.061667368, -0.0026039574, 0.032877717, -0.02036119, -0.07144178, 0.0054696975, -0.066873714, 0.026801063, -0.07135271, -0.06038434, 0.024580698, 0.023022814, -0.017073313, -0.016617075, -0.08696236, -0.10209567, -0.058250625, 0.061389968, -0.047966704, 0.018179525, 0.009268526, -0.025904182, -0.019045712, -0.08057743, -0.034146607, -0.014062299, 0.026337795, -0.012687388, -0.09751085, 0.0728551, -0.100038856, -0.027700873, -0.08092035, -0.014625565, -0.064750835, 0.040464163, -0.06378934, -0.058539312, 0.00913465, 0.046793874, -0.0660444, -0.0072288136, 0.000877507, -0.019816885, -0.026567975, -0.09662501, 0.03838799, -0.041236263, -0.04279788, 0.071952544, -0.052799225, 0.049503565, -0.03405986, 0.0544491, 0.02864546, 0.034601312, -0.087845854, 0.048795674, 0.007748444, -0.0060592443, 0.053703316, 0.059019804, -0.084933296, -0.06396669, 0.0048895082, -0.061313625, -0.05708082, 0.011986766, -0.0919672, 0.018034965, 0.008492438, 0.014900095, -0.08196465, 0.01980559, -0.032694936, -0.07484626, 0.009610734, -0.014190507, 0.033577505, -0.07164039, 0.026013706, -0.033475522, -0.05328816, -0.05084926, -0.0036260593, 0.059357025, -0.070305064, -0.041502804, -0.0035782368, -0.06375578, 0.07507999, -0.045296405, -0.015462784, -0.029276365, 0.048660155, -0.08027675, -0.024370441, 0.007955045, 0.016470047, -0.067365654, 0.027266944, -0.0785733, -0.07271821, 0.0014586945, -0.003818265, 0.040336646, -0.016759207, 0.07388831, 0.028123986, -0.023370836, 0.047423445, -0.024389576, 0.0658191, -0.0003384232, 0.0044220663, 0.06884197, -0.065361895, 0.03176696, -0.044702962, 0.062083073, -0.037704542, -0.06989659, -0.056553405, -0.0005181923, -0.023758056, -0.0071727787, -0.016477758, 0.039769705, -0.046601918, -0.02878059, 0.06362651, -0.017216545, 0.031831056, 0.07003729, -0.061234415, -0.07441905, 0.049524035, 0.07792572, 0.03759238, 0.06255676, -0.0033857282, -0.023997141, 0.00023632859, 0.025129886, -0.00557847, 0.016849903, 0.044953343, 0.07570922, -0.0048452266, -0.0065445146, 0.02318633, -0.07682622, 0.01621174, 0.038944244, 0.004138102, -0.069858536, -0.08708318, 0.05586592, 0.028567495, -0.022768663, 0.07635787, -0.04950136, 0.008157077, -0.009723529, -0.009475238, 0.020756122, 0.05755493, -0.052879047, 0.039031576, -0.010966469, 0.049744606, 0.0140083805, -0.04255253, -0.06882079, 0.030138925, -0.06092387, -0.013604761, 0.011763159, -0.05273391, 0.02044434, -0.024203015, 0.031223798, 0.018798035, -0.07000386, -0.016398592, 0.038577817, -0.058654238, -0.02666564, 0.054247323, 0.05014215, -0.045218945, 0.026925405, -0.026478907, -0.089771174, -0.027103363, -0.012920369, -0.056800853, 0.07239072, 0.04997818, -0.05821944, -0.047583003, 0.0314296, -0.035282373, 0.063968375, -0.0389173, -0.047543984, -0.05288552, -0.06072979, 0.018107506, -0.002670746, -0.062789775, -0.04490924, 0.053477094, -0.0020271759, -0.019067861, -0.03129597, 0.07225596, -0.002335638, 0.020956157, 0.06895571, -0.070994794, -0.022054132, 0.057157375, 0.022953391, -0.057505403, -0.078207836, -0.06816851, 0.07345597, -0.06591368, -0.05797818, -0.06279397, 0.048071556, -0.016653826, -0.07447642, 0.057918124, 0.06871375, 0.069502205, 0.022733103, -0.026882695, 0.05030082, 0.07128996, 0.009992263, -0.04451326, 0.052194167, -0.024191102, 0.070305675, 0.064597465, -0.032104105, -0.045557253, -0.07624486, 0.06918344, 0.07464563, 0.03717806, 0.029055174, 0.06337866, -0.002452886, 0.06940035, -0.07902734, 0.005334821, -0.046692513, -0.07757723, -0.050986893, 0.06168677, -0.047431443, -0.009084236, -0.041463014, 0.017712418, -0.031031583, 0.0072866254, 0.06622179, -0.08506981, -0.048315205, -0.07500831, 0.04559955, 0.0069180904, 0.07296201, 0.05027787, 0.07926083, -0.06851158, -0.08891641, -0.06313861, 0.0017463951, -0.033406388, 0.0005183284, -0.042872895, -0.03376689, 0.07211849, 0.058571912, 0.0640488, -0.038701043, 0.03592585, -0.030268649, 0.053557456, -0.00800882, 0.0704353, -0.04256506, -0.015060554, -0.08254482, -0.02924846, 0.021864694, -0.012872433, 0.04393487, -0.0060002254, -0.06075899, -0.052351702, 0.07698513, 0.023282131, 0.08061899, -0.0015782764, 0.002397368, -0.06365504, 0.029984761, -0.023311552, 0.03398207, 0.029918535, -0.016413072, 0.0853968, 0.02768607, -0.06204827, -0.059484743, 0.05783148, -0.082814276, -0.08193298, -0.010344053, 0.07407958, 0.035123006, -0.07895276, 0.03092274, 0.0043520606, -0.04460467, 0.08288838, -0.00061772787, 0.041584305, -0.08715705, 0.019378953, 0.018007992, -0.0046427767, -0.02533141, -0.08105011, -0.037040528, 0.042246252, -0.00030193603, -0.07166857, -0.021837512, -0.06837045, 0.052934088, -0.07978399, 0.06613534, 0.05824917, -0.06951273, 0.05683598, 0.066709794, 0.015592425, 0.06282851, -0.042778425, -0.02947628, -0.007098691, 0.07396067, 0.015950955, -0.045888703, 0.0749901, -0.0786826, 0.025933953, 0.030919604, 0.043160506, 0.033328123, -0.05417224, -0.02795241, 0.07503484, -0.042154677, -0.024305858, 0.04322098, 0.03164247, -0.00993504, -0.008034772, -0.011385263, 0.07308474, -0.02992897, -0.019914666, 0.022182746, 0.05053598, -0.017616082, -0.049950186, -0.007316954, -0.07093706, -0.057755087, 0.026489362, 0.014341392, 0.024468739, -0.072308645, -0.019641383, 0.06317327, 0.031402394, 0.02965557, 0.037553966, 0.019549282, 0.07895421, 0.021931302, -0.08312671, 0.032477938, -0.0880158, -0.05952263, 0.07968406, -0.024022147, -0.0177375, -0.015234711, -0.03299975, -0.031901106, -0.020161657, -0.028242677, 0.085964575, 0.07540412, 0.018231086, -0.08960279, -0.07909386, 0.041324463, -0.03645282, -0.010333057, -0.078673035, 0.0014486422, 0.08068028, 0.05385209, -0.010571165, -0.0019365497, -0.07625068, 0.0036628053, -0.05682226, -0.04124889, -0.021480868, -0.036328617, -0.066883266, 0.071101144, -0.0006451532, 0.04431652, 0.08342527, -0.059901625, -0.039142497, 0.036977686, 0.0013954223, -0.024973601, 0.0003881983, -0.024520151, 0.07910659, 0.026462594, -0.085852966, -0.042731166, -0.06863196, 0.029303918, -0.030384507, 0.0015345371, -0.027587805, 0.007979428, -0.06599084, -0.002299651, -0.048622992, 0.018154025, -0.01262347, -0.066962294, 0.071349256, -0.021854073, -0.084083766, -0.04154465, 0.04620412, -0.062145226, -0.050706826, -0.036792804, -0.0042033815, -0.07706238, 0.020166839, 0.039506946, -0.036149777, 0.013598087, 0.06831747, 0.00881112, -0.082673505, -0.04821449, -0.036911223, 0.029094268, -0.08284351, -0.07101929, -0.07944776, 0.07376562, 0.010855715, -0.07655931, -0.010283348, 0.060950655, 0.06845105, -0.002950813, -0.023858484, 0.030515827, 0.046706505, 0.0021107697, 0.013049058, -0.058593247, -0.07186408, 0.00081378716, -0.04097468, -0.038234893, 0.033970598, -0.0001276992, 0.033229474, 0.08420693, 0.04251847, 0.047904897, 0.003372655,
  0.0013209516, -0.12630874, -0.078225836, -0.0714214, -0.019731374, -0.1396914, 0.019415468, 0.031942733, -0.07796981, -0.17273423, -0.035134826, -0.13531329, -0.069029905, -0.12602471, 0.017711684, -0.019572072, -0.045670312, -0.11090936, -0.17319262, -0.24652807, -0.24590619, -0.11424708, -0.1312973, -0.08951629, -0.12975079, -0.15822883, -0.033999622, -0.1512386, -0.19393247, -0.057417102, -0.11549198, -0.052556794, -0.028810965, -0.15309535, -0.009963925, -0.06643142, -0.02672232, 0.009717358, -0.05728039, 0.0649278, 0.034965985, -0.07068082, -0.010235325, -0.046527747, 0.0021000109, -0.030580012, -0.031195272, -0.008203876, 0.084564514, -0.05539163, 0.014096852, 0.03412305, 0.0922924, 0.086673245, -0.026930936, -0.10142235, -0.014553809, -0.0074597965, -0.020628994, -0.0041172723, 0.08328672, -0.041738745, -0.045537513, 0.0028071492, 0.021781573, -0.13354424, -0.19300619, -0.20762731, -0.008314116, 0.014704331, -0.010673909, 0.008703256, -0.018617682, -0.07898507, 0.040565465, -0.014154528, -0.07368173, -0.077618025, 0.0090511115, -0.05167838, 0.051040452, -0.02938315, 0.11163553, -0.048090614, 0.09333648, -0.061464824, -0.056661863, -0.0585192, -0.022235261, 0.06671428, -0.019824058, 0.16360255, 0.17683193, 0.09641675, -0.005862954, -0.06501082, 0.032674987, 0.07888085, 0.052589633, 0.025645707, -0.01866581, 0.04382568, -0.060674228, -0.03475863, 0.0034620683, 0.122027606, 0.1040909, -0.07322392, 0.0014173489, 0.027486289, -0.076268636, 0.004707331, 0.067777164, 0.064893715, 0.09662858, 0.10763641, -0.015590989, -0.07414662, 0.019522892, -0.07871807, 0.103505835, -0.0031787122, -0.06378958, 0.095035836, 0.081566565, 0.029417906, 0.12952203, 0.059459556, -0.03858226, 0.0721101, 0.053793732, 0.051002637, -0.010136575, 0.09120006, 0.06327157, 0.0548777, 0.075481474, 0.036658205, 0.1801785, 0.056832507, 0.118117854, 0.10258652, -0.02398939, -0.1060269, 0.06577372, 0.07361507, 0.015093235, -0.07995693, -0.029615114, -0.0006790425, -0.14350103, -0.15127173, -0.047934268, -0.09973652, -0.027357195, 0.026922377, 0.081040055, 0.11814288, 0.061615456, 0.121654704, 0.09663359, -0.00060788885, 0.029221902, 0.012510327, 0.11900088, 0.0034051635, -0.050791472, 0.10487522, 0.0612042, 0.086204715, 0.007720441, 0.048929486, 0.08862459, -0.02847212, -0.057245255, 0.0048652114, -0.06328868, 0.018724613, 0.044334527, -0.046542417, -0.062433634, 0.05018459, -0.07473958, -0.092143446, 0.00638654, -0.034184255, 0.039949834, 0.038671635, 0.04761482, -0.07545504, 0.0031845819, -0.044212624, -0.027868522, -0.13302508, -0.085398346, -0.13076304, -0.032903172, -0.059038695, 0.0036759607, 0.07741961, 0.092957, 0.046563443, -0.00039524207, 0.03932252, -0.10666623, 5.0556122e-05, -0.06099528, 0.09908925, -0.06906303, -0.106246196, -0.13048656, -0.06711321, 0.081695594, 0.06748968, 0.084321626, 0.07309283, -0.01990212, -0.051518165, -0.004295327, -0.08728289, -0.0015933372, 0.0023612622, -0.16710258, -0.09415315, -0.116959915, 0.0024388316, 0.13108702, 0.034884606, -0.07043454, 0.021850854, -0.083349235, 0.011399474, -0.09555107, 0.072606266, -0.0060676057, 0.018050533, 0.034243423, 0.05323886, -0.018406784, 0.13256216, -0.0115720695, -0.04999858, -0.0028513437, 0.010479472, -0.025682483, -0.10718976, 0.05720314, -0.19621807, -0.01012753, -0.010360872, -0.09224059, 0.14107193, 0.02148248, 0.059352428, 0.11623808, -0.061639827, -0.10257975, -0.08837973, 0.01665063, -0.10074175, -0.10013469, -0.044431813, -0.031781413, 0.050383713, 0.1274924, 0.11592446, -0.029620785, -0.045636557, -0.119943306, -0.06293622, -0.09265005, -0.15699033, -0.02550353, -0.17064062, 0.00275009, -0.12505238, 0.0067212703, 0.17516296, 0.11685415, 0.13230132, 0.003309569, -0.13798735, -0.25139242, -0.24158233, -0.091444656, -0.012313605, -0.00491739, -0.13561222, -0.0059924265, 0.030537484, 0.045436848, 0.1223188, 0.15881114, 0.039270546, 0.03605739, -0.0041970024, -0.14612272, 0.057172023, -0.0056610345, -0.07439264, -0.14875919, -0.107323065, -0.1357979, -0.0068674344, 0.064968556, 0.14726037, 0.037368495, -0.11202737, -0.093587324, -0.06315115, -0.07670503, 0.09777554, -0.06820365, -0.1862689, -0.083580345, -0.0037172476, 0.09167509, 0.0942342, 0.062338177, 0.038945913, -0.04201836, -0.1598533, -0.067199074, 0.0014579262, -0.07842047, -0.110766515, -0.21503648, -0.07237798, -0.04171079, 0.03943846, 0.11995646, 0.054600555, 0.04293403, -0.061883613, -0.053686306, -0.08236447, 0.0122724725, 0.02026317, 0.02960144, -0.18097112, -0.09954601, -0.1076664, -0.01676452, 0.011756571, 0.06334896, 0.09925171, 0.09530001, 0.012625868, -0.07744776, 0.076546125, -0.0037332564, 0.068410546, -0.014266969, -0.16352125, 0.008198864, 0.06686581, 0.17718257, 0.16535449, 0.15758711, 0.0032649, -0.110820025, 0.0026610345, 0.034524284, 0.03580116, 0.008606318, -0.13369079, -0.08709715, -0.04653361, -0.11542312, 0.09813836, 0.10092178, 0.015281121, -0.10103355, -0.11639644, -0.09612239, -0.10646242, 0.020379543, -0.076845996, -0.12514728, -0.046483066, 0.046241596, -0.07083106, -0.043014344, 0.08202206, -0.058960095, -0.12345225, -0.09959168, -0.14427102, 0.019852342, 0.03557809, -0.07288701, -0.0032288972, -0.0514643, -0.04650615, -0.03712889, 0.07925162, 0.1265027, 0.116433084, -0.08135462, -0.036483753, -0.13568255, 0.076005906, 0.0838845, 0.039339185, 0.09682575, 0.018477151, -0.11268316, -0.07320411, 0.019109946, 0.014919454, -0.044249136, -0.030725949, -0.05867591, -0.036255278, -0.06232762, 0.08665869, 0.0307965, 0.052648343, -0.00027692827, -0.08169565, -0.13701996, 0.012860089, 0.012022922, 0.019002145, -0.042060502, -0.10841865, -0.09504437, 0.012858714, 0.0044925734, -0.04660609, -0.011128946, -0.06149747, -0.024700727, -0.060286652, -0.08693759, 0.004377911, -0.00628095, -0.08440813, -0.049662624, -0.0031665722, 0.014978087, 0.0899646, -0.024278764, 0.04384311, 0.02650519, 0.055732302, -0.030501587, 0.032236617, 0.052383408, 0.05837213, 0.069963455, 0.024135014, 0.08378365, 0.12749672, 0.064214304, -0.021038907, 0.022748908, 0.07683332, -0.06565791, -0.06224922, -0.0172784, -0.017229496, -0.012382022, 0.04033024, -0.06654494, -0.05112076, -0.02340345, 0.07054259, -0.07668327, 0.10384089, 0.14629842, -0.014190691, -0.024706345, -0.007579368, -0.017871825, 0.0017193299, -0.0015225237, 0.0653077, 0.08405339, 0.08182022, 0.11292732, -0.21067682, 0.10987439, 0.035043586, -0.0827725, -0.09263696, -0.16368707, -0.03336936, -0.061747015, 0.03181019, 0.039015554, -0.11600049, -0.021292033, -0.052359138, -0.10751803, 0.13351874, 0.019039541, -0.13841331, -0.14009134, -0.04645744, -0.042236943, -0.036783967, -0.053616244, -0.029643781, 0.027361507, -0.026165333, 0.0542008, -0.17341074, 0.14090507, 0.029834177, -0.006469674, 0.0276602, -0.043960433, -0.078992225, -0.05622647, 0.054662943, 0.04168644, -0.057563957, -0.0033258325, -0.002576707, 0.025685638, 0.14304818, 0.114952624, -0.09692037, 0.019825464, -0.058593962, -0.051766843, 0.035478704, 0.0028406915, 0.0155381095, -0.030371742, -0.05986052, 0.010675032, -0.046980742, 0.06214755, 0.06137213, -0.046951797, -0.028656594, -0.09744504, 0.047708437, -0.028861752, 0.038614925, 0.017681494, -0.021194516, -0.036139987, -0.032375954, 0.13018595, 0.07742267, 0.021807104, -0.08456049, -0.14124201, 0.015821097, -0.06586777, -0.062495608, 0.04182441, 0.10310326, 0.1618804, 0.061344847, 0.025964754, 0.07088507, 0.06120054, 0.076538876, -0.029189227, -0.025205033, 0.026284019, 0.026524637, 0.08515091, 0.13412264, 0.18119314, 0.20762236, 0.16161856, 0.10966207, 0.01226225, 0.044961333, 0.0867841, -0.0070608254, 0.07012208, 0.018783618, 0.09341458, 0.0660486, 0.07655337, 0.124136336, 0.06414698, 0.14571404, 0.15169176, 0.06774862, 0.013623625, 0.11208712, 0.060253795, -0.025538364, 0.010046806, -0.025480611, 0.05277024, 0.14791657, 0.19136423, 0.18729217, 0.07078057, -0.033186045, -0.0066772723, 0.11172357, 0.007850342, -0.07336153, 0.08030738, -0.04042658, 0.047462434, 0.073667675, 0.113160774, 0.08982391, 0.12554203, 0.12509248, 0.021387143, 0.016463943, 0.06264384, 0.17091587, 0.10208159, 0.10198803, 0.08760281, 0.07095854, 0.108052045, 0.032628745, 0.14178202, 0.14618884, 0.1739716, 0.011079135, 0.05809092, 0.063164204, -0.057093773, 0.016100693, 0.020044902, 0.07787263, 0.023090404, 0.0890244, 0.03499683, 0.1564068, 0.03644575, 0.0013315505, -0.0017316653, -0.004638434, -0.013490393, 0.06363589, 0.082596034, 0.06318971, -0.0055462113, -0.08141523, -0.006541729, 0.09831909, 0.01897613, 0.082448974, 0.087146975, -0.040047195, 0.047292612, 0.15475683, 0.14573629, -0.030331183, -0.010754996, -0.100863025, 0.08263375, 0.016780443, 0.022284677, 0.11014497, 0.006235896, 0.11020659, -0.034765027, 0.04518325, 0.11624818, 0.08212246, 0.10572861, 0.10045696, 0.118141554, 0.030629579, 0.037374005, 0.03059927, 0.023182688, 0.016151726, 0.031675104, -0.0783064, 0.065122694, 0.0060022525, 0.01054527, 0.029577535, -0.018213449, 0.019920629, -0.006484989, -0.022563502, -0.017534573, 0.07269038, -0.07238387, -0.057391327, 0.034951873, 0.00751625, -0.003441519, 0.07671128, -0.046284728, -0.036229197, -0.05225636, 0.046980835, -0.09241475, -0.0025947744, -0.020453868, 0.048477653, -0.06045614, 0.036755748, -0.034302443, -0.008856718, 0.11014281, 0.0013364431, 0.013121706, 0.0035892637, 0.00010582713, -0.05615661, -0.098513596, -0.025024239, -0.07199294, 0.052968767, 0.095974565, 0.16157024, 0.09663779, 0.10632185, -0.052453004, -0.11031557, -0.023668718, -0.081692986, 0.03697486, -0.06169313, -0.09363566, 0.08954756, -0.004537615, 0.07832241, 0.09151929, -0.00646017, 0.061307505, -0.016745815, 0.008440908, 0.013008178, -0.09819183, -0.08751346, -0.06461927, 0.056922983, 0.0553402, -0.049603246, 0.021241218, 0.041357964, 0.050722353, 0.06753703, -0.011427188, -0.021947907, 0.06351234, 0.112103395, 0.014149172, 0.10016275, 0.08494468, 0.021553664, 0.10429932, -0.01683148,
  -0.01493929, -0.10048745, -0.018494047, 0.06295492, -0.0660962, -0.085152216, -0.029369462, -0.06450909, 0.03793783, 0.028105887, -0.03277794, -0.09476826, -0.0060768994, -0.0055538197, 0.013541169, -0.019294238, -0.035396174, 0.027092462, -0.088829234, 0.070030995, -0.024698716, 0.07326078, -0.050911594, 0.012951019, -0.06174648, 0.06375189, -0.027380923, -0.049263965, 0.035112776, -0.071922, -0.08359932, -0.035908967, 0.048192415, -0.08500959, 0.017170886, 0.015800795, -0.07697977, 0.012396395, 0.050287418, 0.03662257, 0.017485222, -0.031501517, 0.05244097, 0.067560956, -0.010323711, -0.022550138, 0.04317799, -0.05790376, -0.04691718, -0.049223024, -0.0026376864, -0.06306073, 0.052087445, 0.04506541, 0.0642835, 0.015012561, 0.0651972, -0.07533183, -0.055735335, -0.004354302, -0.055438984, 0.023332277, -0.095623344, -0.037493404, -0.08718346, -0.015604935, 0.034753162, -0.030282749, 0.046362765, 0.047429178, -0.0413737, 0.062660195, -0.014319673, 0.06302565, 0.00037059444, 0.061556038, 0.022746136, 0.05780706, 0.048682466, 0.02250657, 0.013601756, -0.05625228, -0.063166216, 0.05618718, 0.021685911, 0.04864008, -0.08194385, 0.06976194, 0.018403245, 0.019639134, 0.06632044, -0.050656147, 0.023088653, -0.09795255, -0.029199036, -0.06576644, 0.030344822, 0.01706075, -0.056885056, 0.07385954, -0.08063326, -0.060252972, 0.052731484, 0.059256434, -0.06931575, -0.016713446, -0.092323385, -0.07799272, 0.06597304, 0.04702276, -0.0695655, -0.020629331, -0.020103494, 0.06315765, 0.025024958, -0.07941847, 0.0064679817, -0.04549447, 0.06594882, 0.07006513, 0.046767164, 0.027309896, -0.07945502, -0.04875018, -0.069407105, -0.012030552, 0.00096632837, 0.061956964, -0.09780108, -0.03579825, 0.058153667, -0.05215436, -0.021770572, -0.045831572, 0.056404896, -0.048958313, -0.070413515, -0.04891835, 0.024272028, 0.013871267, -0.052711874, -0.07459876, -0.03687128, -0.08216665, 0.061990086, 0.02163926, 0.0026055463, -0.00428379, -0.05277319, -0.054925136, -0.083925046, 0.070340365, -0.002692652, -0.009105787, -0.065577626, 0.0075249444, -0.10158254, 0.0075006406, 0.07079999, -0.07388397, 0.059033997, -0.016531087, -0.05887656, -0.044968504, -0.020572865, 0.036314502, -0.08153192, -0.010546907, 0.021164007, -0.029336361, 0.007834057, -0.08336006, 0.024190059, -0.051958553, -0.008835614, 0.018204972, 0.022687934, -0.008838527, 0.022053415, -0.07326496, -0.07495082, 0.038776685, 0.027781703, -0.04746674, 0.00638881, -0.07397983, 0.017111845, -0.08187417, 0.0512047, -0.015120657, -0.008474885, -0.009080051, -0.027093612, 0.02310929, -0.09204473, -0.07788656, 0.011588088, -0.07940903, -0.02857438, -0.07173047, -0.012486321, -0.039039448, -0.07719881, 0.049388997, -0.03683153, 0.05706795, 0.016300881, 0.009525555, -0.031902608, -0.035764217, -0.081031986, -0.0096937, 0.015850082, -0.014455233, -0.09074671, 0.041757066, 0.06593605, -0.044300802, 0.06278501, 0.003749935, -0.0042335787, -0.063918345, 0.055828016, 0.047132693, 0.0008728367, -0.08475912, -0.008308923, 0.038630173, -0.07857353, 0.05915948, 0.071135156, 0.0076485923, 0.033849068, -0.019950643, -0.05158855, -0.04673929, -0.07950692, -0.00029451709, 0.066040106, -0.07427996, 0.05003426, -0.021623274, 0.06969757, 0.06671344, -0.021929868, -0.07759381, 0.057387836, -0.060079206, -0.015974132, -0.041643407, 0.059401643, -0.06673048, 0.011952892, 0.020768115, -0.08710189, 0.065002166, 0.07323916, -0.03068622, -0.0018425122, -0.06722233, -0.03110417, -0.006190469, -0.09603751, 0.05250488, 0.029280346, 0.07120967, -0.066656426, -0.052776612, -0.0003570431, 0.010967832, -0.056040946, -0.050008394, -0.036186047, 0.05703073, -0.026988788, -0.017542904, -0.070123106, -0.027946401, -0.010048353, 0.064672716, -0.041031536, 0.048754264, -0.07917123, -0.00036711636, -0.024567425, 0.041743666, 0.024104062, -0.016723089, 0.007864245, -0.005887732, 0.028003257, -0.04409385, -0.049062468, 0.06947793, -0.02836043, -0.06887607, -0.010406867, 0.0015453575, -0.04705656, -0.039623518, 0.053369306, -0.024382707, 0.005383156, -0.033271506, -0.027927851, 0.031962138, -0.040550936, -0.039187282, -0.0629863, 0.079235956, -0.019335529, 0.05658587, -0.052735496, 0.031104304, -0.027051067, 0.056455743, 0.050842296, -0.037785195, 0.056788787, -0.03303713, 0.051451996, 0.06004837, 0.050656024, 0.022899253, -0.020665864, 0.06736768, 3.5388417e-05, -0.01108036, -0.07844766, 0.015355675, 0.029625403, -0.0066972617, -0.09359387, 0.02735443, 0.016050674, -0.02993482, -0.045203038, 0.030343795, 0.07269202, -0.07054973, -0.037040368, -0.07170799, -0.06836825, -0.018060287, 0.050255615, -0.055030514, -0.02935582, -0.053015567, -0.093549296, -0.08672803, 0.007127631, 0.026439441, 0.009323512, 0.05879426, 0.045161422, 0.060091887, 0.032644317, -0.09379448, 0.047782775, -0.089764826, 0.047527857, -0.0851879, -0.095032476, 0.057589747, 0.05520005, -0.010217053, 0.06320732, -0.00883103, -0.025777422, 0.035916656, -0.03426638, -0.009414402, -0.087698914, 0.053387936, -0.08863278, -0.07454034, 0.031612452, -0.09141809, -0.046923432, 0.039394967, -0.0747994, 0.02594428, 0.038437303, 0.07346596, -0.085259885, 0.0387678, -0.030705402, -0.09431629, 0.05275807, 0.048546616, 0.055632234, -0.02497949, 0.017444799, -0.08038116, 0.022146698, -0.008604133, -0.013143651, -0.0025035057, -0.034410365, -0.0036385877, 0.073228985, -0.027004901, -0.060592376, -0.018540628, -0.04642449, 0.040411104, -0.070792526, 0.07978865, -0.082220845, -0.047418375, -0.0949614, -0.0015971899, -0.037441544, -0.09500896, 0.007678275, -0.03875065, 0.05617729, 0.07641944, -0.060028527, -0.008456326, -0.073626235, -0.027501283, 0.0071103275, 0.053503733, -0.022327665, 0.051213544, -0.010977073, 0.07213791, -0.059874587, -0.089049436, 0.020218957, -0.06474886, 0.024369346, -0.066313185, 0.06975862, -0.017402073, 0.059972562, -0.071798414, 0.048286647, 0.043741543, -0.08456636, 0.012910106, 0.019854957, 0.044099826, -0.052482646, -0.031452082, 0.07174194, 0.0036163987, -0.035671443, 0.011083724, 0.059136316, 0.06898425, -0.08729846, 0.010299909, 0.054996293, -0.053989023, 0.023895366, -0.079629116, -0.060306538, -0.008307916, 0.06501083, 0.045433044, -0.009006996, -0.04871607, -0.016923163, -0.042489007, 0.06430443, 0.007905954, 0.005326303, -0.027348662, 0.014539865, -0.017318757, -0.090258755, 0.07331614, -0.009082797, 0.029553784, -0.03660277, -0.0027783518, -0.066023156, -0.076073214, 0.025812367, -0.0635367, 0.069624744, 0.07179241, 0.027496966, 0.017801935, 0.045037054, -0.0069923047, 0.0024496268, 0.0010222307, 0.027451038, 0.025237113, -0.006928924, -0.07042528, 0.04477054, 0.059005763, 0.07041661, -0.021208616, 0.0013506176, -0.06087409, -0.030317029, -0.012728373, -0.08937694, 0.0121228285, -0.09175901, 0.062446956, -0.07204657, -0.0953076, 0.079408355, -0.020568632, -0.024044415, 0.004546188, -0.07279297, 0.036265414, -0.02591467, 0.006097179, 0.061725914, 0.0593142, -0.08920986, -0.006209877, 0.023296695, -0.013389242, 0.019707544, -0.019476946, -0.07493609, -0.030959645, 0.0738141, -0.07716192, 0.024329688, 0.069324, 0.0123515995, -0.08477983, 0.01890978, 0.010454284, 0.05422345, -0.07430045, 0.0335702, -0.07283769, 0.0005724627, 0.058772966, 0.014785403, -0.028658103, 0.052806433, -0.05776238, 0.021936243, 0.0009630853, -0.08703227, -0.017018968, -0.07105843, -0.0879494, -0.017427856, -0.028285276, -0.03033003, 0.05219026, 0.06139198, -0.07831691, -0.06934172, -0.048309173, -0.06673065, 0.066898435, -0.07634641, 0.0089483, -0.013350533, 0.0677189, -0.010449214, 0.07006686, -0.058292817, -0.025989547, 0.06587636, -0.009654656, 0.03614115, 0.03837804, 0.036720026, 0.015676627, 0.04390396, 0.045321003, 0.02427768, 0.07389344, 0.04464061, 0.07005964, 0.028088028, -0.0635702, -0.04724843, 0.06613415, -0.056511026, -0.041241214, -0.013035561, -0.040179607, -0.05220413, -0.026857318, -0.09289795, -0.06526164, -0.0053585353, -0.05775757, 0.019389179, 0.0033602405, 0.009700493, -0.07223806, -0.06133076, -0.051794905, -0.028080938, 0.04088614, -0.0034209327, -0.07244394, 0.055527538, -0.030602021, -0.08759779, 0.030975623, -0.026154669, -0.035711765, -0.018142316, -0.02475647, 0.0005948771, -0.0223524, 0.07802468, 0.068107106, -0.008113693, -0.08895557, 0.062542066, -0.007917535, 0.075546265, 0.07765767, -0.028183779, 0.06780483, 0.022681909, -0.019947922, -0.06779097, 0.002857088, -0.023076948, 0.05921544, -0.05765921, -0.0155256605, 0.06328889, 0.06379232, -0.01648659, -0.07641732, -0.026336476, -0.028936122, 0.059938397, -0.07632456, -0.003948611, 0.029310007, -0.07482368, 0.015327905, -0.024397979, 0.0075969296, 0.051776897, -0.07590796, 0.065762974, -0.08201241, 0.0820334, -0.019219967, -0.019325258, -0.021439089, -0.017875068, 0.03793015, 0.008917038, -0.007486668, -0.08664765, 0.0038169345, 0.019970253, 0.0050879526, -0.067673355, -0.062006652, -0.037620056, 0.077930965, -0.0018267373, 0.001849967, -0.041923035, -0.092847034, 0.023699297, 0.033216234, 0.07198166, 0.02469216, 0.06307802, -0.040281087, 0.008935888, 0.058402393, 0.0710588, -0.045917682, -0.04354377, -0.06309837, 0.03179109, -0.091027744, 0.02563464, 0.07761856, -0.024770247, -0.050279416, 0.05684531, -0.06689241, -0.04136807, -0.07001836, -0.028602166, -0.071896784, -0.024222227, -0.03415338, 0.00031893203, -0.062096618, -0.011735907, -0.081386894, 0.004300868, -0.028249769, -0.055565335, -0.012989805, 0.08531101, -0.034403596, 0.0067723203, 0.016790388, -0.017112948, -0.0851464, -0.03490642, 0.017313845, -0.059973743, -0.07322932, -0.022869498, 0.084671766, -0.06853891, 0.0068302257, 0.018211052, 0.001878133, 0.0720074, -0.04957526, -0.04604171, -0.072327696, 0.06499699, 0.05729162, -0.022147082, 0.049657155, -0.04460372, -0.06421701, 0.053639095, 0.042533543, -0.033295576, 0.02661661, -0.058643837, 0.051711876, 0.017208172, 0.024975514, -0.041136734, 0.053185616, -0.02302582, -0.0071864873, 0.039381098, 0.06325997, -0.026299287, 0.014966003, -0.077132426, -0.028712565, -0.030440263, 0.092071466, -0.00465773, 0.039723556, -0.0489989, -0.07615358,
  -0.021887017, -0.10037414, -0.054124556, 0.06576904, 0.067603044, -0.08134278, 0.03134511, -0.0048187417, 0.055580296, -0.11121352, -0.104299635, 0.04905174, -0.064673916, -0.04362798, -0.023638705, -0.010035858, -0.03086579, -0.025891842, -0.0894451, -0.011662694, -0.08536816, -0.11732208, 0.043045647, 0.02979175, 0.022259071, -0.09555044, -0.02563966, -0.03600036, -0.007413303, 7.877967e-05, 0.018480755, -0.079877, -0.046213627, -0.058789637, -0.05385162, 0.037583906, -0.034020685, -0.08512376, 0.013906033, -0.09410271, 0.052932728, -0.040165827, -0.020195425, -0.066452615, -0.022919577, -0.10170307, -0.086217724, 0.04301794, 0.013600543, -0.021896832, -0.0927161, 0.058833864, -0.020802472, -0.020010931, 0.047897212, -0.10490488, 0.02888123, -0.045827474, -0.08213214, 0.024184592, -0.095391706, -0.043912567, -0.07649209, 0.06377172, -0.06898336, -0.052080434, -0.07260964, -0.084096536, -0.082017384, -0.080091044, -0.08148309, -0.03479562, -0.041507043, -0.07551533, 0.024603555, 0.063662715, -0.0020946534, 0.002120206, 0.022969464, 0.04188401, -0.011603828, 0.0454236, 0.06009426, 0.027515635, -0.012924068, -0.004881846, -0.05509112, 0.034181725, -0.023882959, -0.09179488, -0.10118972, 0.02435181, 0.047391146, -0.01834934, -0.10245016, 0.05113357, 0.049668606, 0.02823777, -0.09205429, 0.044120673, 0.0007271605, 0.043706153, 0.020549066, -0.05075511, 0.033620834, 0.010462397, 0.024860919, 0.039367378, 0.037372813, 0.04628827, 0.032877855, 0.002886549, -0.0148175135, -0.009655255, -0.10277547, -0.104831785, 0.03682093, -0.042446338, -0.09287329, -0.0931656, -0.09577917, -0.015070677, 0.05533657, 0.007730313, 0.055072907, 0.029243378, 0.05975264, 0.014736577, -0.07555729, 0.0042413794, 0.016303642, -0.06374939, -0.002636312, 0.015130724, -0.08862871, 0.04199738, 0.02428966, -0.088943884, 0.0070809633, 0.07773698, -0.060455374, -0.050887764, -0.03597242, -0.028391799, -0.08144314, 0.047713492, 0.027087994, 0.06887557, 0.06605153, -0.100215726, -0.060640294, 0.0058346065, 0.023842983, 0.03971211, 0.00077722996, -0.10155936, -0.083392896, 0.08196418, 0.047858443, -0.033687666, -0.056513138, -0.07789807, -0.07701441, -0.038381934, 0.0040106243, 0.0022006347, 0.038851935, -0.0805902, -0.04433262, -0.07923489, -0.009496565, 0.0060930206, -0.027854832, 0.0034943921, 0.025764855, 0.019540925, 0.004827735, -0.0056508896, 0.039049022, 0.069047704, -0.03967142, -0.005226643, -0.03686597, -0.014779125, 0.05790844, -0.09779632, 0.07245452, -0.016779473, 0.054555375, 0.057891805, 0.0321784, -0.06880528, -0.018982384, -0.037110273, 0.055868834, -0.0280131, 0.008310753, -0.05200229, -0.08578841, 0.03507973, -0.05165253, -0.062273808, -0.025167273, -0.02146348, -0.085476555, 0.054945994, -0.081880175, 0.038556583, 0.0066248756, -0.045112383, -0.06314431, -0.044736106, -0.0047116843, 0.045072846, 0.027040929, -0.008800651, 0.016944997, 0.04069749, 0.0184201, -0.04806783, 0.02667664, -0.026675064, -0.099747635, 0.016847625, 0.054667532, 0.043365017, -0.0022849396, 0.042825986, 0.012158515, -0.025511783, 0.012762665, -0.06328888, -0.0906827, -0.08186607, 0.0024071794, -0.09321654, -0.0680018, -0.03693609, -0.0394721, -0.028860865, -0.041687075, 0.032341044, 0.042271756, 0.04893774, 0.019567834, 0.031653114, -0.06752281, -0.11734416, -0.058802072, 0.031550627, -0.039867762, 0.005961425, 0.055424955, -0.08184092, 0.024058484, -0.11200545, -0.006825339, -0.10496729, -0.023448337, -0.082478546, -0.028220596, -0.103713654, 0.030779859, -0.12224968, -0.057349034, 0.045249987, -0.0043883463, -0.022008194, -0.03395707, 0.0132306395, 0.043476522, 0.015460432, -0.03893688, -0.040621188, 0.016075734, -0.02463337, -0.061798874, -0.072246835, -0.05582896, -0.11070361, -0.009109427, -0.10642716, -0.021001967, -0.054276448, -0.060586266, 0.028049516, -0.050165612, -0.022124907, -0.09579292, -0.057301544, -0.09994737, -0.09334679, 0.029412355, -0.0568551, -0.013781567, -0.08443007, 0.0064095343, -0.025341902, 0.051861543, -0.018726233, -0.06110562, 0.05990181, 0.017558642, 0.008207823, 0.008669384, -0.04258802, -0.07895202, -0.058102705, -0.007649405, -0.042934455, -0.080546826, -0.011887702, -0.086486, -0.09125118, -0.07252283, 0.04240352, -0.060896218, -0.06283884, -0.09874294, -0.0897511, -0.07733337, -0.05585115, 0.0052691223, -0.086440094, 0.024816718, -0.10820886, -0.07786428, 0.038480252, 0.034049097, 0.024287678, 0.04266321, -0.08620715, 0.033422094, -0.019522673, 0.03961576, -0.09094099, -0.046193004, -0.054564726, -0.02011389, -0.05713873, -0.08616485, 0.040348034, -0.10004301, 0.050689306, 0.049474876, -0.023612179, -0.043032195, 0.019635415, -0.03866154, -0.009995895, -0.06374946, -0.058696795, 0.07110911, -0.09457982, 0.029320873, 0.022024186, -0.0064608417, 0.0008041511, 0.073591545, -0.03566904, -0.013558405, -0.017096763, 0.05158347, -0.07492511, -0.03519195, -0.057201505, -0.03402043, 0.0068507735, 0.04806326, -0.08654283, 0.035359126, 0.060543884, 0.01229797, -0.074997745, -0.005026319, 0.03367825, 0.05081624, -0.052410215, 0.039124433, -0.03244227, 0.03491494, 0.06226267, -0.09218193, -0.02911439, 0.043138817, -0.06374217, 0.03105409, -0.006900475, -0.033874385, 0.064206086, -0.045385715, 0.04244466, -0.03143335, -0.090499565, -0.09518411, -0.010415019, 0.028547373, -0.07273208, 0.025610594, 0.022056855, -0.0434923, 0.03699293, 0.008273498, 0.0048380336, 0.011639073, 0.04801492, -0.038739316, 0.040852815, 0.013489584, -0.0026804183, -0.028121285, -0.02568971, -0.06741604, 0.054827116, -0.08457303, -0.07931436, 0.0653449, 0.047715332, 0.071114115, -0.0017875509, 0.009930117, -0.03851414, -0.044474985, -0.01765666, -0.0019143382, -0.08148234, 0.038467754, -0.005221527, 0.0048002563, -0.08923978, 0.02539615, 0.05086113, 0.0063631837, 0.04527996, 0.03487614, -0.060496967, -0.091235064, 0.047910467, -0.10526122, -0.031272765, 0.011134529, -0.07388872, 0.0016591253, -0.07953865, -0.075849526, -0.10066198, 0.06908631, 0.0021468683, -0.017716547, -0.09236839, 0.025484571, 0.011654243, 0.018848356, -0.017362216, 0.008166607, -0.006617523, -0.076466165, -0.043549858, -0.090061724, 0.020485476, 0.07495868, 0.007997281, -0.05540054, -0.046003465, -0.023536269, 0.005378184, -0.009738514, -0.08556445, -0.08397604, 0.039587315, 0.014750887, -0.08440824, 0.06831247, -0.041413166, -0.063729286, -0.076133884, 0.04550512, -0.070020966, 0.044183858, 0.0019753664, 0.07223699, 0.046599913, 0.09164043, -0.019015359, 0.055597827, -0.032696765, -0.05995805, -0.020222979, -0.03553759, 0.066088036, 0.003726146, -0.010019613, -0.0058303126, -0.05580495, 0.048333, 0.043794267, 0.047469195, 0.08788875, 0.054531317, 0.018875742, -0.07028754, -0.03544867, -0.021338472, 0.053583406, 0.03769393, 0.0038336823, 0.028503448, 0.02462541, -0.0652537, 0.06649453, -0.053922806, -0.034938112, -0.035095777, -0.06131607, 0.051144104, 0.0774324, -0.07149826, -0.022116255, 0.013037791, -0.054672208, 0.07016681, 0.03415761, 0.07990203, -0.040305074, -0.032271057, 0.047956325, 0.04670268, 0.04315732, -0.04906816, 0.032656565, 0.052725274, 0.074060105, 0.069425434, 0.08103009, 0.04855061, 0.073112346, 0.0643467, 0.040857296, -0.05829903, 0.009026038, 0.051514897, 0.03965077, 0.08315392, -0.07381715, 0.06349018, -0.062150374, 0.024423875, -0.047712322, 0.024563126, -0.0045505795, -0.018132308, 0.07720764, 0.0060840715, -0.061463144, -0.0051490176, 0.02904874, -0.083981626, -0.07367717, -0.025851173, -0.005941361, 0.061240602, 0.0177826, -0.07944777, -0.040139977, -0.08250347, -0.03561607, -0.051623877, -0.010930822, 0.07419801, 0.02389609, 0.015250878, -0.011357127, 0.029204318, 0.08933437, 0.047016397, 0.048905674, -0.064862266, -0.041933674, -0.048883557, -0.05522798, 0.08106867, -0.035212398, 0.082398586, -0.03766127, -0.046209384, -0.050171833, -0.044650946, -0.018493904, 0.061518416, 0.0693448, 0.016982818, -0.024050713, 0.071932666, -0.020374488, 0.08623329, 0.07925972, 0.08138186, 0.060489107, -0.07487236, -0.073802605, 0.015402091, 0.05703952, -0.08005801, 0.007865306, -0.048071217, -0.008493266, 0.06611519, -0.072892375, 0.07847927, -0.03631824, -0.054547887, 0.00858677, -0.023634106, -0.062502295, -0.025414275, -0.077785864, 0.028402418, -0.0767812, -0.07274501, 0.06793757, 0.06429508, 0.018303547, -0.008552807, -0.054484278, 0.024051972, 0.05066052, -0.031672537, 0.039273087, 0.076266035, 0.041046582, 0.084951065, 0.065716535, 0.031240666, 0.00013134134, 0.044454243, 0.06525988, -0.04290202, -0.08283005, -0.05150639, -0.060478043, 0.058240313, 0.04932728, -0.006115162, -0.013276689, 0.06409104, 0.039530035, 0.08488179, -0.016358756, 0.06088877, -0.027602492, 0.06358112, -0.084209464, -0.03752066, -0.070238054, -0.06537001, -0.030483967, 0.07825489, 0.064378925, 0.089566074, 0.07189407, -0.028028037, 0.05205044, -0.03230903, 0.0012225905, 0.06304481, -0.035555836, -0.038884394, 0.062419664, -0.018678075, -0.020022593, 0.08297453, 0.012809074, 0.06803272, 0.0019224032, -0.047927182, -0.038296554, 0.06804348, -0.032020178, -0.07643049, -0.014685161, -0.020872688, -0.007852454, -0.06794571, 0.051075578, 0.046010338, -0.027417816, -0.013214468, 0.0410013, -0.0014478563, 0.04406902, -0.01699464, -0.028516268, -0.06381669, -0.048256267, 0.08251563, -0.027554877, 0.05910427, 0.08224651, -0.07355856, 0.04119341, -0.053286538, 0.044946462, 0.045150455, -0.041378774, -0.07346025, 0.079985924, 0.07973907, 0.09042092, -0.024756813, 0.04379058, -0.047289252, -0.06560522, -0.035255477, -0.0063924748, 0.044006046, -0.040195152, 0.01938595, -0.065862685, -0.039700326, 0.0069205356, 0.031720668, 0.05355689, -0.0428286, 0.0040433877, -0.07408228, -0.047656562, 0.06319581, -0.0017207047, 0.0057118395, -0.065041915, -0.05300899, -0.0044911965, 0.080439754, 0.01371617, -0.005454853, 0.005533289, 0.053205866, -0.044320777, 0.086183794, 0.0636708, 0.07739625, -0.041666266, 0.041909024, 0.0002282883, -0.049493246, -0.016459774, -0.03872466, 0.03517914, -0.039858498, -0.014393907, 0.0032553608, 0.09654789, -0.010288709, -0.039197925,
  -0.106361166, -0.083798885, -0.101939864, 0.031246455, -0.013052057, -0.00823434, 0.031164791, -0.003502408, -0.10564641, -0.19475652, -0.11068325, -0.086636245, -0.007229673, -0.04056643, 0.026038773, 0.016214868, -0.1822848, -0.07088746, -0.039387953, -0.2914864, -0.358423, -0.17786105, -0.17999004, -0.21986614, -0.1066135, -0.03157313, -0.042564545, 0.023208149, -0.012700604, -0.12266108, 0.010349133, -0.08368166, -0.06846445, -0.023413392, 0.0044154637, -0.06655901, -0.11983675, 0.0020203115, 0.07213525, 0.09765299, 0.0068066837, 0.073271714, 0.05331762, -0.062081363, 0.11254879, -0.018498473, -0.06521185, -0.04304958, 0.07904059, -0.024177818, -0.015967442, 0.058199972, -0.015368492, 0.09912631, 0.033857495, -0.0038585416, -0.0743141, -0.010698036, 0.096093744, -0.06137086, 0.024027541, -0.06796494, 0.008145946, 0.0016777988, 0.0150314085, 0.028055055, -0.11320291, -0.11852885, -0.053587906, -0.07166374, 0.015257908, -0.05078684, -0.059304133, -0.03329655, -0.017045286, 0.034892656, 0.04754087, 0.004038109, 0.012803122, -0.08379477, -0.09260515, -0.04569365, 0.08739475, 0.10456693, -0.026609275, 0.108901426, 0.13032025, -0.005601221, 0.098877825, -0.051940292, 0.03465021, 0.033936217, 0.12488081, 0.0017460695, -0.00084069965, 0.00062524824, 0.041597873, 0.07852981, 0.030251518, 0.048733346, -0.0028435488, 0.054135352, 0.05392666, 0.009359537, -0.050635703, 0.04529775, 0.09375318, -0.101299085, -0.16785175, 0.058650162, 0.018625936, 0.061766658, 0.064554565, 0.06999125, 0.04918881, -0.027273878, 0.063019976, -0.106479, -0.0075092106, -0.06895189, 0.02541154, -0.084982686, 0.11373612, 0.021622749, -0.004131971, 0.08829892, 0.08186478, 0.10447934, -0.03234271, 0.16793895, 0.03210327, 0.08336641, -0.031139854, 0.09745067, 0.0031851972, -0.017804986, 0.1261586, 0.034511227, 0.13793316, 0.034130346, 0.05962165, -0.014778543, 0.051034003, -0.017486028, -0.06250063, -0.04378171, -0.18966994, -0.049761027, -0.030063255, -0.0007968539, -0.08732822, -0.08424506, -0.13111785, 0.011790851, -0.033562846, 0.082680196, 0.11058724, 0.14370784, 0.063662186, 0.13484225, 0.07211807, 0.09063668, 0.1717388, 0.19763128, 0.052665073, 0.07227792, 0.056897327, 0.021206925, 0.006353979, 0.09842386, -0.037771992, 0.021686146, 0.06378529, -0.073166125, 0.10351725, 0.023457304, -0.018993698, 0.021326797, 0.019360097, -0.08363091, -0.14316775, -0.002503979, 0.048927035, 0.07632404, 0.040560834, -0.08726847, -0.0011128739, 0.023972115, -0.10061414, -0.13534403, 0.0018013901, -0.08811414, -0.046310395, -0.07577516, 0.078407526, 0.008204276, 0.100361794, 0.07869314, -0.1458978, 0.10933464, 0.20567627, 0.048406586, 0.0019140962, -0.047612812, 0.08410691, -0.062168892, 0.0839187, 0.024163844, 0.019459238, 0.017841429, -0.024853699, -0.14455216, 0.046390932, 0.14191097, 0.04890008, 0.046566494, 0.06558086, 0.07760394, -0.038930204, -0.01511105, 0.06700614, -0.112853795, -0.099045046, -0.058813404, -0.068894066, 0.13489595, 0.13388681, 0.10051601, 0.12085859, 0.09132957, -0.0038224556, -0.108060375, 0.0060016545, 0.042484883, -0.060265716, -0.017363535, 0.07934812, -0.08407239, 0.08296021, 0.034442153, -0.015970355, 0.010260519, -0.06410361, -0.07703933, -0.12725179, -0.041256204, 0.06416296, -0.12102613, -0.047582027, -0.132849, -0.033756875, 0.12978823, 0.080498755, 0.017493807, -0.08604505, -0.08468087, -0.12007641, -0.09689396, -0.12718707, -0.1565494, -0.102029994, -0.10135102, -0.11935874, 0.03959793, 0.1348296, 0.048117533, 0.049801987, 0.05135454, -0.07410353, -0.183569, -0.09232812, -0.041299123, -0.060905773, -0.033951823, 0.0013888166, -0.00012911299, -0.029551808, 0.037034918, 0.09633549, 0.11313767, 0.103501275, -0.12660767, -0.17099507, -0.050494812, -0.16582984, -0.10591065, 0.064580746, -0.10655175, -0.0042232764, -0.12019175, 0.061857127, 0.19101407, 0.25281116, 0.1302754, -0.009937588, -0.113532, -0.02657062, -0.023507195, 0.101203635, -0.006366601, -0.17576876, -0.060723033, -0.12346596, 0.009869418, 0.14675272, 0.02735307, 0.010230917, -0.11236711, -0.17916264, -0.14265303, -0.11390653, 0.024083111, -0.16102225, -0.17272773, -0.18922833, -0.10594844, 0.050369482, 0.16181006, 0.10143122, 0.19805388, -0.038399275, -0.116813466, -0.008449668, -0.017840248, 0.037744943, -0.08770648, -0.21898435, -0.090638205, -0.043977458, -0.0010304594, 0.07587411, 0.090692006, 0.12731712, -0.07625293, -0.23124215, -0.15278567, -0.07093471, -0.0037362638, 0.015400424, -0.19597937, -0.24349143, -0.13351527, -0.046369135, 0.1285387, 0.106559515, 0.07780123, 0.04148677, -0.021077191, 0.0017372988, -0.04328523, 0.022421816, 0.07763479, 0.010841198, -0.10711816, 0.0068733664, 0.078609765, 0.1920102, 0.17577752, 0.14454514, -0.030606767, -0.05308065, -0.04040539, -0.100109555, 0.085963316, -0.033746675, -0.12788218, -0.1097945, -0.01957805, -0.033840623, -0.005700991, 0.060065135, 0.03558228, -0.07110661, -0.16858828, -0.12723976, -0.20079921, -0.04687812, -0.09015628, 0.008606367, 0.01761363, 0.017031895, 0.046893697, 0.07711926, 0.20589843, 0.078823246, -0.053056195, -0.20853461, -0.17560944, -0.00093486434, -0.04699933, 0.020537201, 0.12104736, -0.0515885, 0.052680194, -0.01872826, 0.13390154, 0.0944252, 0.02890269, 0.030015275, -0.1324785, -0.027148016, -0.05546603, 0.05493313, 0.000810648, 0.01931672, 0.05568002, 0.06199236, -0.082666025, 0.040071897, 0.12678525, 0.036892436, -0.12932059, -0.14293747, -0.030937783, -0.031435423, 0.06716672, 0.016262753, 0.033316173, 0.06341197, -0.16531347, -0.014607473, 0.103439525, 0.06380141, 0.0018784942, -0.06505769, -0.041287124, -0.0066217673, -0.018732302, 0.13470083, -0.11197022, 0.06379697, -0.06854943, -0.046153124, -0.15289119, 3.7725007e-05, 0.07847378, 0.116216674, 0.03780027, -0.1316963, -0.07477985, 0.07351647, 0.0686462, -0.12872261, 0.07518694, 0.02162952, -0.102555364, -0.040739767, 0.009045139, 0.13697182, 7.844921e-05, -0.012913048, -0.08411177, -0.0254234, 0.060092285, 0.058707427, -0.055438504, -0.008589891, 0.015540985, -0.012296893, -0.013892729, -0.010901782, 0.01256385, 0.046570353, 0.07713213, -0.034419477, -0.1061394, 0.00880036, 0.02271615, 0.015141917, -0.0632495, -0.05817245, -0.13368274, 0.04672219, 0.003735058, 0.08468372, 0.07464482, 0.12056445, -0.021679435, 0.03328036, 0.029706309, 0.022267936, -0.13056222, 0.099751934, -0.023148734, -0.11119535, -0.0071286666, 0.037445143, 0.03459527, -0.005287183, -0.040389102, -0.059622593, -0.052483715, -0.11112698, -0.044814713, -0.087012544, 0.058006532, 0.16659537, 0.024424134, 0.050911535, 0.008366542, -0.050248303, 0.040342458, -0.030964931, -0.013703027, 0.0072836983, 0.02716564, 0.03533935, -0.11269802, 0.11196842, 0.040072925, -0.040895462, 0.09152842, 0.0046587377, -0.015485635, 0.059628278, -0.03929351, 0.007943677, 0.047664654, -0.065462284, -0.09133934, 0.052276336, 0.07730543, 0.17306525, 0.13778359, -0.0018231472, 0.13004635, -0.112683475, -0.05985663, 0.07826343, 0.05937547, 0.090455815, -0.08580902, -0.06281611, -0.10571924, -0.02072788, -0.049817063, -0.14690728, -0.098423, -0.036541015, -0.09602822, 0.02702608, 0.022810731, 0.09409207, -0.07279455, -0.040894322, 0.024831343, -0.053418186, 0.05773854, 0.030716397, -0.13374986, -0.12023903, -0.030246103, -0.14136879, -0.12171876, 0.042942304, 0.04142236, 0.0046341997, -0.01648266, -0.09331045, -0.05383704, 0.100119226, 0.018310238, -0.04945543, -0.10843055, 0.04649196, -0.08753476, 0.011880641, 0.07130086, 0.044483323, 0.08177132, -0.06813189, 0.05881957, -0.09288689, 0.03449744, 0.027335482, 0.038755924, -0.07433859, -0.088387944, -0.16712755, -0.1434177, -0.008254806, 0.1529012, 0.00045091132, -0.06748992, -0.099567555, -0.045198772, 0.09893387, 0.020475365, 0.031498782, -0.081588835, -0.11214075, -0.12756024, 0.022380054, -0.02874726, 0.10221695, 0.0037536733, -0.08405167, 0.041723315, -0.1983811, -0.016896633, 0.060465764, -0.13632078, -0.10243235, -0.0142712025, -0.034067582, -0.06012025, -0.06846379, 0.029999496, 0.10432658, 0.024683237, -0.105573155, -0.115197875, 0.06661183, 0.15271404, -0.0030131342, -0.04973802, 0.06186204, 0.0044191545, -0.02844746, 0.024231281, 0.060758803, 0.17524952, 0.07203283, -0.045697164, -0.024654385, 0.023343453, -0.00195309, -0.03857174, 0.003145438, -0.011580667, -0.13259287, -0.0300867, -0.027036173, 0.16827048, 0.03340828, 0.1453756, 0.104849465, -0.021552656, 0.0072263624, 0.08934761, -0.05026986, -0.031533476, -0.011026084, -0.19733986, -0.015316957, -0.03144027, 0.020420818, 0.02707436, 0.05241175, 0.03313973, -0.01593865, 0.1441019, 0.090768434, -0.07759711, 0.0189815, -0.002214085, -0.114197634, -0.023059402, 0.063464545, 0.02633309, 0.11657251, 0.09281118, -0.064183585, 0.054741543, 0.1680044, 0.035991233, -0.05226256, 0.04026031, 0.0877253, -0.14753434, 0.0077069853, 0.005424457, 0.17733705, 0.09542953, 0.088621154, 0.056596465, -0.0583653, 0.051875766, -0.046969708, -0.027343864, -0.0048646154, -0.0065533575, 0.043378096, 0.03782261, 0.0721386, 0.057884548, 0.086866766, 0.09289144, 0.034977272, 0.04383235, 0.0108337635, 0.16052794, -0.0764059, 0.04227169, -0.024033021, -0.05757354, -0.08960274, -0.024202097, -0.0061326716, -0.033189494, -0.018266223, 0.0800453, -0.06376332, 0.18536009, 0.13036588, -0.02557489, -0.05152548, 0.068810634, 0.08303571, 0.066959694, 0.14901245, 0.13644624, 0.0364302, 0.1827899, -0.0011385196, 0.13575934, 0.14650844, 0.10029765, 0.078139104, -0.016701015, 0.07304487, 0.07252849, 0.12655595, 0.09281891, 0.10168952, 0.18196267, 0.08363582, 0.03775105, -0.05513179, 0.0452081, 0.037750218, -0.011641616, 0.09987635, -0.028242314, 0.082355015, -0.02949121, 0.10597442, 0.16363892, 0.12356591, 0.13411848, 0.120942995, 0.09330302, 0.07355901, 0.07752261, 0.09882332, 0.118346594, -0.007916299, 0.045374233, 0.13777457, 0.0384617, 0.106164284, 0.14479552, 0.09137202, 0.056397356,
  -0.0004339367, 0.03630711, -0.03939758, 0.0076150624, -0.08372915, -0.015076301, 0.06932783, 0.06876787, -0.049508378, -0.050143145, -0.024593053, -0.0318643, -0.023919743, -0.05665316, -0.085544094, -0.0013873513, -0.03164519, -0.060275532, -0.043562435, 0.04641303, 0.0029146683, 0.029196132, 0.04518987, -0.0121047655, -0.0065901857, 0.0014859437, -0.036880333, -0.041339826, 0.07643463, -0.029852826, 0.024338862, 0.016314613, -0.02624829, -0.05217994, -0.029942412, 0.05506015, 0.046439435, 0.018976683, 0.07394537, 0.023372056, 0.059341643, -0.03930561, -0.054810345, -0.0011919134, -0.063503794, -0.06190373, -0.086735986, -0.071644865, -0.03583357, 0.055355035, -0.009705786, -0.041061305, 0.05893214, -0.019362548, -0.06272832, 0.038069747, -0.056276046, 0.015735669, 0.0022463605, 0.028923118, -0.034665495, 0.053191483, 0.057786603, 0.030804781, -0.0077874605, -0.086551525, -0.013766296, -0.03036763, 0.06240161, -0.011569546, 0.059754, -0.07095318, -0.052861195, 0.052310016, 0.016724722, -0.066910274, -0.044368733, 0.05803238, 0.07036151, -0.049019746, -0.062331744, 0.072586946, 0.03835081, 0.009318817, 0.048941016, 0.03918038, -0.085770585, 0.001780099, 0.049307536, -0.03418331, -0.03455364, -0.09177972, -0.079985455, 0.0591477, -0.021392828, 0.025909971, -0.05124177, -0.08725881, 0.069756925, -0.08446615, 0.046003234, 0.059305716, 0.07048728, -0.0752775, 0.04743199, 0.002798024, 0.007772495, -0.008519934, -0.059251875, -0.027955338, -0.05011446, -0.061196096, 0.00035044664, -0.07773209, -0.012756603, -0.085174926, -0.005661477, -0.07973707, -0.076706186, -0.085072786, -0.06682418, 0.026336296, -0.05882, -0.06982136, 0.06343063, -0.082992, -0.03675475, 0.047700763, -0.0028341995, -0.031519137, 0.055974755, -0.0010613665, 0.017847858, -0.091011934, -0.03949735, 0.031539604, 0.052280303, 0.00017845325, 0.013291509, 0.0018563133, -0.006820092, -0.082899414, -0.0597735, -0.014932271, -0.025929032, -0.0012749895, -0.010284376, 0.017809968, -0.05821507, -0.09762566, -0.0053849765, 0.06672916, 0.050262507, 0.06475215, 0.026947154, -0.064846024, 0.024922514, -0.09135563, 0.019555291, -0.098460026, -0.089956656, -0.01973292, -0.014899476, -0.08675423, -0.05869129, 0.0032630928, -0.06241685, -0.09618077, 0.022844478, 0.061010145, -0.008602113, 0.02189727, 0.02942861, -0.02014018, 0.06895664, 0.05031754, 0.021554006, 0.022449538, 0.063739195, 0.027622918, -0.02399437, -0.0009839825, -0.023412574, 0.07054059, 0.055211544, -0.09539636, 0.030619025, 0.03333412, 0.018996377, -0.091263026, 0.047909874, 0.01335633, -0.016344752, 0.055927742, -0.09203038, -0.050473996, -0.08728281, -0.057882644, 0.008878964, 0.06308765, 0.046499163, -0.017055584, -0.02628509, -0.075103745, -0.054900363, 0.060466204, -0.08464851, -0.027736392, 0.030098567, -0.024594802, -0.051323786, 0.054996718, -0.061337534, -0.029565789, 0.041225243, -0.029178802, 0.020105764, -0.019925075, 0.012833746, -0.03503104, -0.09373189, -0.09192473, 0.06832206, -0.096198924, 0.020272482, -0.050040197, -0.07504632, -0.061409414, 0.07012116, -0.06828194, 0.018293364, 0.0400634, -0.08964522, 0.045275595, -0.08562161, 0.020341104, -0.07424863, 0.06442393, -0.039848484, -0.07160344, -0.032903522, 0.051928923, -0.0006848955, -0.06986139, -0.09066347, -0.06649087, 0.04143366, 0.021326741, -0.037920788, -0.054073893, 0.061027966, -0.04418107, 0.056765784, 0.016726686, -0.079696976, 0.06817869, -0.017594814, 0.0031775357, 0.0032818974, -0.013218609, -0.019758439, 0.049783956, -0.07609726, -0.08252198, 0.050749023, -0.04553555, -0.014219871, 0.032978617, 0.073033534, 0.07726876, -0.03332997, -0.07779793, 0.009581074, -0.037332032, -0.019990979, 0.05540797, 0.07816053, -0.005706588, 0.07240726, -0.0032160475, -0.034685094, 0.07044657, 0.01354472, 0.075195104, 0.0324335, -0.023818135, -0.07683315, -0.05537344, 0.0036969923, 0.021039417, 0.04918862, 0.075922936, -0.02105998, 0.071504325, -0.08626712, 0.05159847, 0.011856218, -0.002996154, -0.0047118966, -0.041690264, -0.014600572, 0.028577052, -0.0700026, -0.046052236, -0.067753434, 0.019733313, 0.058408953, 0.0059158183, 0.035242625, 0.024900235, -0.047002356, 0.005793328, -0.026798569, -0.006731693, -0.0776146, 0.048057497, 0.04419407, -0.05949386, -0.06304363, -0.02145265, -0.09234404, 0.023638265, 0.017626598, 0.039554995, -0.02906832, 0.014900372, -0.0911965, -0.0306244, -0.04128075, -0.023107622, 0.037808593, 0.00095943274, -0.024385627, -0.0015158564, 0.03157891, 0.07493536, 0.03666271, -0.0023330569, 0.034312073, 0.06504516, -0.048453085, -0.09048411, -0.085741855, 0.008215405, -0.0757694, -0.08757415, 0.059723426, 0.04129164, -0.047788788, -0.054682672, 0.032142602, 0.063182585, 0.015593704, -0.066799514, -0.0006642708, -0.030603897, 0.012289312, -0.093631536, -0.030922476, 0.04585663, -0.02578425, -0.06052471, -0.033609066, -0.08239087, -0.041646637, 0.06319651, -0.032498766, 0.04885657, -0.05664098, 0.048208658, 0.0258718, 0.060000215, -0.053471215, 0.047362354, -0.043800958, 0.019493256, 0.0798441, -0.09200284, -0.018132357, -0.04556908, -0.072669804, -0.025975239, -0.049613535, 0.015765654, 0.062411398, -0.03238023, -0.050486885, -0.09207633, 0.06376572, -0.06438165, 0.06881027, -0.012162797, -0.048903532, 0.005927694, -0.028061073, -0.021075564, 0.053567912, -0.057897776, -0.004654317, 0.038681097, 0.02465937, -0.07655169, -0.020892313, 0.04941121, -0.03741176, 0.03512778, 0.025929697, -0.036804788, 0.03293078, 0.02844716, -0.09392362, 0.05789858, 0.00349822, 0.0051404666, 0.0050056484, 0.017199852, -0.068615474, -0.023932792, -0.079753354, -0.019469619, -0.008439574, -0.056837045, 0.07512322, -0.007061225, -0.05474626, 0.04630789, -0.026050085, 0.07596977, 0.06533225, 0.01718634, 0.0034241162, -0.077196635, 0.046422705, -0.061168108, -0.0911663, -0.053328633, -0.07433906, -0.06545917, 0.06620382, 0.039402332, -0.0056587616, 0.07188772, 0.047005136, -0.093264885, -0.050633613, 0.02780278, 0.06697963, 0.053717036, -0.0034939798, 0.03083244, 0.022958014, -0.06932049, 0.011384547, -0.07857321, 0.013682244, 0.0086150225, -0.05846835, 0.04613694, -0.074392274, -0.053531814, -0.02895837, -0.030862134, 0.048151948, 0.07365986, 0.021070806, 0.031740617, -0.02471593, -0.025702974, 0.009077345, -0.0125274835, 0.0010278516, 0.021498077, 0.04782234, 0.028575063, -0.09438277, 0.055390324, -0.08465197, -0.08879181, -0.08690111, -0.05877006, 0.07982746, -0.07579297, 0.06993911, -0.057304967, 0.07325501, 0.072552755, -0.043116797, -0.07150746, 0.04577609, -0.0037198507, 0.00982876, 0.07723575, -0.061203655, 0.008801402, -0.06453568, 0.07339357, -0.015477954, -0.02869238, -0.02702103, 0.033567358, 0.056308713, -0.041871756, -0.06797639, -0.031848047, -0.05139431, 0.0058177626, 0.0011615508, -0.0077400557, 0.060526185, -0.026555192, -0.0024823453, 0.0093922345, -0.090588614, -0.049569394, 0.0071125254, -0.04454399, 0.07907373, 0.061516237, 0.035623044, 0.045061566, 0.038010396, -0.085241705, -0.018648507, -0.08283558, -0.01824507, -0.050850466, 0.017636934, -0.063856795, 0.047853127, -0.049704798, -0.046492085, -0.07780166, -0.09523122, 0.051485315, 0.020961266, 0.030542046, 0.033430334, 0.0485504, -0.021586003, -0.057772566, -0.050714932, -0.039277826, 0.024249302, 0.048116483, -0.03666217, -0.0028905447, 0.066960335, -0.081197046, 0.04359786, 0.029730955, 0.03363477, 0.042803194, 0.013727603, -0.021469189, -0.08182481, 0.049547136, 0.00063666626, -0.07131993, 0.019110091, 0.0025943632, -0.0025814676, -0.04274166, -0.009652431, -0.04290664, 0.020449437, 0.0795962, -0.09577605, 0.0492466, -0.024414718, 0.017653216, -0.020545363, -0.050236214, -0.052161925, -0.0062233433, 0.06672348, -0.053656876, -0.085746, -0.010740432, 0.06582714, 0.010709582, 0.05057524, -0.008777293, -0.09082606, 0.06692287, -0.028103294, 0.0027137955, -0.050754208, -0.07619705, -0.06922024, 0.061862577, -0.038403176, -0.05122184, 0.032391444, -0.004035057, 0.047504455, 0.030521635, -0.033804167, 0.029187255, -0.071811885, 0.026177792, 0.056784086, 0.01656701, 0.024774255, 0.016240608, -0.06297835, -0.04199344, -0.09108161, -0.0701797, 0.019969482, 0.065468684, 0.06967833, 0.009587654, 0.032819454, -0.095574096, -0.009893232, -0.02725325, -0.04976309, -0.09073369, -0.08726005, -0.055982836, 0.06936616, 0.035050955, -0.060590718, -0.088356495, -0.091293275, 0.043431055, -0.036349006, 0.03675383, -0.083173424, -0.042355537, 0.033609048, -0.060636513, -0.08706411, 0.07994956, -0.054954465, -0.040800154, 0.010921229, -0.066534206, -0.020131933, -0.045815952, 0.036417335, 0.06369941, 0.054093536, 0.012144353, -0.086786464, 0.04445048, -0.07012596, -0.047795936, 0.06817295, 0.017474895, 0.026868137, 0.0516732, -0.04540539, 0.064259194, 0.06945213, -0.019905448, 0.011874884, -0.029367356, -0.029275248, 0.071401075, -0.009780905, -0.022021838, -0.06604824, -0.02426449, -0.05873599, -0.069951534, 0.0327198, -0.081856675, 0.05705251, -0.08085931, 0.013792462, 0.030883037, -0.009804909, -0.008805899, -0.08172053, -0.08454943, -0.0733543, -0.039401006, 0.040275536, -0.06874187, -0.043608315, 0.058061328, -0.031885877, 0.010987166, 0.024102494, 0.011070746, 0.060835775, -0.07042985, -0.06254865, 0.07670222, -0.070790805, -0.06367183, -0.020329311, -0.0034599504, 0.015795609, -0.095243245, 0.037098773, 0.048349734, -0.054924864, -0.004303655, -0.0654455, 0.025206923, -0.049194995, 0.029377177, -0.07272183, -0.009890791, 0.055529404, 0.054038126, 0.03343308, -0.0843869, -0.044944316, 0.011487865, 0.048299056, -0.028979043, -0.049945958, 0.06608138, 0.07856962, 0.047212612, -0.06401758, 0.012368163, -0.061917648, 0.03159669, -0.0947187, 0.07494591, -0.0835893, -0.09325401, -0.043313526, 0.021790937, -0.09099672, 0.0066462196, -0.046848428, -0.08276696, 0.04903666, -0.0001001425, -0.036138847, 0.02774374, -0.021870313, 0.039479975, 0.028643357, -0.003206788, 0.051196013, 0.0592398, -0.06563522, -0.009812174, -0.034842394, -0.011329221, -0.026154969, 0.06648508, 0.058224607, -0.072442204, 0.04223699, 0.023432348, 0.013184186, -0.06483421,
  0.042272978, 0.051625684, 0.09000944, 0.08923298, 0.0944201, -0.0003821635, 0.07049809, 0.018247083, 0.047620136, -0.043535586, 0.036607977, -0.041937128, 0.036745127, -0.0174051, -0.013964698, -0.07421072, 0.065029405, -0.042266734, -0.0012076416, 0.09393102, 0.080096856, -0.012778749, -0.0739421, 0.05108457, 0.06621898, -0.04447659, 0.034513548, -0.051966604, 0.034345336, -0.026184848, 0.009163521, 0.03828839, 0.048906922, 0.09704885, 0.09347208, -0.004304427, -0.0098956255, 0.031898644, -0.028126178, 0.017287064, 0.050603304, -0.07410055, 0.015613932, -0.033919692, -0.06879348, -0.03522021, 0.04615399, 0.09488414, -0.06647559, 0.042151432, 0.06628532, 0.009847946, 0.05350361, -0.07485836, -0.0338674, -0.05730002, -0.045057267, 0.015533636, -0.006010606, 0.060916375, 0.088399336, -0.011659133, 0.04242284, -0.0014966701, 0.061797053, 0.09498927, 0.033021208, -0.05365618, 0.015204276, -0.004116058, -0.04078558, -0.016451841, 0.05490738, -0.011613095, -0.008763663, -0.00275103, 0.06579384, 0.016322637, 0.004578548, 0.06066464, 0.08247916, -0.029709607, -0.057768617, -0.054130007, 0.004801934, -0.079520404, -0.036967643, -0.044782754, -0.064853795, -0.0636777, -0.012491174, -0.06123924, -0.05230781, -0.01891417, -0.03801004, -0.03407065, -0.027233858, 0.060268153, 0.08743014, 0.06621986, 0.09406698, -0.05438452, -0.05186534, -0.05657861, -0.07771905, 0.018397016, -0.05968047, 0.025119688, -0.011263733, 0.025797285, 0.039512303, -0.0042634103, 0.09259431, -0.030222675, 0.09162015, 0.034923136, 0.026763646, -0.003122071, 0.093288355, 0.06954346, -0.03629018, 0.047941398, 0.0256473, -0.0750051, 0.07637221, 0.062323228, 0.06443765, 0.06657195, 0.016918547, 0.078476205, 0.047891892, 0.07224431, 0.08191758, 0.08869422, 0.009073603, -0.0014640011, -0.035560414, 0.076853864, 0.08693481, -0.0065302583, 0.08546495, 0.06747194, 0.09347614, 0.033464238, 0.032735173, 0.06264002, 0.02482517, -0.07126269, -0.0065816976, 0.011773789, 0.09305731, 0.022623897, 0.047994062, -0.07473121, -0.02854764, 0.070830084, 0.030871706, -0.05414476, 0.046914987, -0.027440822, 0.04413939, 0.0853035, 0.06234862, 0.038723014, -0.043224014, 0.06764023, 0.041665107, -0.041739598, 0.0036102342, 0.046251524, -0.07579928, -0.010905261, 0.0050076377, -0.01941097, 0.088599786, 0.096962854, 0.009871675, 0.09408852, -0.013676698, 0.07642677, 0.046140198, 0.03038191, -0.07630438, -0.048691653, -0.01093219, 0.018937515, 0.0153142, 0.010330528, 0.022429952, -0.046967182, -0.0070366366, 0.009093422, -0.0031919237, -0.031441137, 0.0060202517, 0.03878888, -0.03956964, 0.017729212, -0.072454914, -0.054024525, -0.00017686591, 0.06946166, 0.045274995, -0.051406447, 0.014764933, 0.038771927, -0.012380597, 0.030121913, 0.068519704, -0.014403158, -0.07123865, 0.09009671, 0.056156445, 0.019093271, 0.029619895, 0.07116917, -0.05515117, 0.023563916, 0.020404864, -0.07247619, 0.050776485, 0.06646409, 0.039252255, -0.074679196, -0.038511243, -0.011806132, -0.03820137, -0.057454128, 0.016748637, -0.02175264, -0.03714499, -0.058924153, 0.016712211, -0.032503203, -0.038410183, 0.09007386, 0.0050446102, -0.017973794, -0.07191862, -0.05929224, 0.0101559935, -0.04700619, -0.07582187, -0.07350027, 0.028614607, 0.0021270283, 0.07530248, -0.0090922965, -0.07269347, -0.025550388, 0.07575329, 0.068896115, 0.06640803, 0.090044074, 0.024348523, -0.007772072, 0.076649986, 0.046593916, -0.018827474, 0.05053359, -0.07452135, -0.012933954, 0.0016041149, -0.035972245, 0.09409674, -0.03945777, 0.046296712, -0.034528527, -0.034146447, 0.082759425, 0.084724486, 0.010415716, -0.07606053, 0.032557804, -0.03542712, -0.03155117, 0.051436033, 0.012563079, 0.013395387, -0.030118844, 0.0015341097, -0.04335856, 0.06926271, -0.04121806, 0.08641933, -0.04293614, -0.0142579805, -0.005867666, 0.063161954, 0.025987098, 0.048552692, -0.03923753, 0.0061040674, -0.07826335, -0.041571025, 0.021330403, 0.057952177, 0.00043141926, -0.07228394, 0.011723004, 0.017369267, -0.066881165, 0.07191802, 0.040086526, 0.08821967, -0.060176708, -0.032860316, -0.012003874, 0.053204138, 0.016959041, -0.07953876, 0.03026387, -0.04334272, 0.0006444859, 0.09460795, 0.007167714, 0.04428139, -0.042242423, -0.0029771838, 0.00989035, 0.00696721, -0.002362614, 0.008027868, 0.054394588, 0.04143231, 0.025347963, 0.07275086, 0.05053907, -0.07231041, 0.016466899, -0.0668486, -0.067222156, 0.03537896, -0.0010837795, -0.0765612, 0.07534811, 0.040633276, 0.0013592523, 0.06943361, 0.090425536, 0.06505743, 0.08097184, 0.059490424, -0.06875009, 0.030139402, -0.06643385, 0.0012119708, 0.029564768, 0.0220607, 0.07041515, 0.059899952, -0.02152351, 0.035765022, 0.01666374, 0.03036839, -0.0033786779, 0.01498603, -0.038394332, 0.056141134, 0.04994649, 0.0017349626, -0.016899956, -0.020917013, -0.06073605, 0.09529953, -0.032478057, -0.04883234, 0.08247817, -0.05362437, 0.016684571, -0.014673745, 0.074066825, 0.074292086, 0.07617049, 0.0046310364, -0.016141113, 0.026701324, -0.047780048, -0.04101221, -0.011886433, 0.01312782, 0.039097648, 0.079654135, 0.030513586, 0.054114345, 0.007988285, -0.07542511, 0.079503685, -0.010121533, 0.048473097, -0.051462457, 0.021092627, -0.011316578, 0.0022858363, 0.06595353, -0.021736385, 0.00526906, -0.031928107, -0.034938265, 0.058845602, 0.030928345, 0.021346193, -0.06458056, 0.005861585, 0.06311455, 0.082224526, 0.09027139, -0.061523926, 0.08582838, -0.014317816, 0.08627397, -0.028485244, -0.063555375, 0.046511263, 0.008348179, 0.061590414, -0.019233406, -0.07347478, 0.0852997, 0.077648155, -0.023833906, 0.041751686, -0.0066531664, 0.019018687, 0.0005559362, 0.03746258, -0.022620348, 0.018859582, -0.021325681, -0.0064786687, -0.049535923, -0.021778923, -0.069468565, -0.05881094, -0.013548491, -0.032641172, -0.059547458, -0.069813974, -0.07544257, -0.07230907, 0.0039154743, 0.06626809, 0.023320876, 0.014344012, 0.07039263, -0.07483832, -0.012276026, -0.0028693737, 0.083371244, -0.07066517, -0.06914811, 0.06503702, 0.074487686, -0.048138708, 0.0035706363, 0.052604105, -0.013356512, 0.024139194, -0.062045977, 0.06445968, 0.04292647, -0.024304116, -0.05355501, -0.0098000625, 0.07838317, -0.040230893, -0.036128543, -0.07098359, 0.016948828, -0.014172493, 0.051791016, -0.005849231, -0.049722724, -0.074771054, 0.054480594, -0.051710654, 0.06284121, 0.054449923, 0.054461118, -0.016271995, 0.023878718, 0.006071529, -0.056701746, 0.04491502, 0.031743716, 0.07715589, -0.03864844, -0.0402351, 0.033470925, 0.018659214, -0.04517346, -0.0018153674, -0.0015297716, -0.032573465, 0.03436141, -0.061566252, -0.008975933, -0.00985116, -0.06710179, -0.047535136, 0.015223768, -0.06924897, 0.093837924, 0.013224452, -0.02422282, -0.07403747, 0.02855558, -0.054284908, 0.0037505913, 0.032157596, 0.082471296, 0.0846173, -0.011217887, -0.05124306, 0.008556693, -0.024588278, 0.022462465, 0.06701852, 0.08706283, -0.056975227, -0.06023998, -0.06621418, -0.029081626, 0.021947145, -0.07614163, 0.042477615, 0.07904378, 0.0073546157, -0.018820701, -0.042296555, 0.046359263, -0.06739275, 0.017375533, -0.06137695, -0.039011344, -0.06408723, 0.004247291, -0.044457737, 0.052738596, -0.012571471, 0.011995017, 0.045335587, 0.0015841186, -0.076956995, 0.015523861, 0.080473654, -0.058131535, 0.0065642595, 0.049600173, 0.055469904, -0.029885465, -0.048621956, 0.048098527, 0.09471773, 0.0034088662, 0.07539949, 0.062641084, 0.030720253, 0.09002889, 0.011389414, 0.035643294, 0.010845634, 0.08995899, -0.05323293, 0.05515085, 0.037579823, -0.056791093, -0.069052964, -0.0731073, -0.044880427, -0.05564026, 0.011449239, -0.07868118, 0.001438237, -0.032359403, -0.060224757, 0.05640212, 0.06161999, 0.028437046, 0.023079082, -0.06864692, -0.044704694, 0.08164351, 0.062369492, 0.0756971, 0.060230426, -0.05918668, 0.085449286, 0.0010686944, 0.037469395, 0.016608343, -0.0153491255, -0.006524556, 0.092267394, 0.07143297, 0.033393737, 0.019075748, 0.013649431, 0.03267041, 0.063265584, 0.026385207, 0.024139753, -0.055995744, 0.03888686, -0.07292638, 0.022277988, 0.03665823, -0.0020381093, 0.062357876, -0.028137095, -0.0721286, 0.041387342, 0.03510368, -0.038055617, -0.053980023, 0.018550094, -0.04397302, 0.036681246, -0.039080862, -0.0205964, 0.07913377, -0.061536416, 0.033444323, 0.090467155, 0.07590657, 0.08726916, -0.030830378, 0.05269188, -0.08038849, 0.051506884, -0.04716556, 0.060037483, 0.036243685, 0.08887112, 0.004472656, 0.027103676, 0.031733017, -0.07404183, 0.06144169, 0.060823675, -0.065594204, -0.06277785, -0.06886211, -0.027576149, -0.014985344, 0.06105462, 0.028769726, 0.010335515, -0.0364598, 0.09452426, 0.05477937, 0.041381855, -0.029020432, -0.017090956, 0.08199742, -0.059087694, -0.019321322, 0.08792387, -0.045002244, 0.041348, -0.0006724439, -0.027241925, 0.03531059, -0.019328771, 0.0923657, 0.09179282, -0.0115873115, 0.024933597, 0.003656553, 0.09196304, 0.06888925, 0.07881343, 0.07366356, 0.024686784, -0.028360613, -0.012294586, -0.03636008, 0.05055515, 0.048640966, 0.053529624, -0.001983593, -0.0049036345, -0.046473596, 0.042545103, 0.040505953, 0.03122104, -0.034488615, 0.0344605, -0.028116105, 0.054639045, 0.08764863, -0.05764567, 0.08688861, 0.00073017884, -0.024078114, 0.031644657, -0.06446695, 0.0013548492, -0.082293145, -0.06621938, 0.08740618, 0.03851014, 0.01502041, 0.08248731, 0.06907107, -0.075617224, 0.026353827, -0.06368404, 0.0282465, 0.046760388, -0.06741837, -0.027796542, -0.0192606, -0.029158069, 0.06681531, 0.01801147, -0.0015285235, -0.042458758, -0.011903171, 0.039970774, -0.0082821995, -0.033213474, 0.06553058, 0.08331181, 0.034809254, -0.048637435, 0.021609217, -0.007210262, -0.033936072, -0.023144998, -0.056515746, -0.008262144, 0.07204682, 0.028407814, 0.00021262997, 0.027304221, -0.01347415, 0.015160165, -0.041733228, -0.05487603, 0.07747332, -0.048364095, -0.05775942, -0.0034258745, 0.07813156, -0.010799227, -0.02117118, -0.08279211, -0.022009896, 0.021187697, -0.016384082, 0.026611088, -0.027653446, -0.014729688,
  0.122827165, 0.011536562, 0.0643754, -0.014374686, 0.0024569386, 0.10837697, 0.11183774, 0.10662437, 0.017507259, 0.16007169, 0.055116594, -0.0048820847, -0.035594948, 0.09941589, 3.977408e-05, 0.054192808, 0.019815426, 0.11647189, 0.16466032, 0.25925064, 0.15703326, 0.18709838, 0.09507993, 0.16157193, 0.04193953, 0.13248876, 0.1027702, 0.04424, 0.06344102, 0.17904381, 0.14843217, 0.12167181, 0.07655476, 0.0018631102, 0.1213247, 0.08563098, 0.056777712, 0.084754765, 0.107045256, 0.03345376, -0.040149067, -0.021118307, -0.04737723, -0.08468174, -0.014805812, -0.05151984, -0.044363037, -0.064005785, 0.03926202, -0.0047418596, -0.04478663, -0.07140499, -0.036326148, -0.09323104, 0.030104375, -0.01797951, 0.1327742, 0.043069318, 0.0247564, -0.059327725, -0.033084035, -0.050303027, -0.056854818, 0.026234822, -0.030205505, -0.008989722, 0.149372, 0.14215115, 0.080525115, 0.025529528, 0.039461687, 0.011710273, 0.050140284, 0.08671232, 0.058995456, 0.023503095, 0.03833634, 0.076124825, -0.10598217, -0.0078122844, 0.12536985, 0.10144735, -0.08785653, 0.021288594, -0.052707348, -0.022763517, -0.008906739, -0.00079470675, -0.07446776, 0.009652102, -0.06968952, -0.10580855, -0.03834258, -0.13388655, -0.057517346, 0.06642579, 0.04730067, -0.060327716, -0.108349964, -0.08497729, 0.026569027, -0.02107517, -0.012448401, -0.078364335, -0.031475015, -0.057385184, -0.13694753, 0.029043458, 0.03884269, -0.042062644, -0.01074508, -0.034125917, -0.016876461, 0.0048036235, -0.043974135, 0.06098593, 0.06565299, 0.04101397, -0.0019305956, 0.075776406, -0.062237926, 0.07848138, -0.037133213, -0.050048873, 0.02708861, -0.14401084, -0.11004813, -0.037679736, -0.014316196, -0.09825227, 0.012787693, -0.10185485, -0.04653654, -0.025359116, -0.00034905993, -0.04885873, -0.08383703, -0.16971095, -0.14306793, -0.023737041, -0.07411424, -0.09561491, -0.07741343, 0.024558863, 0.046932787, 0.08148361, 0.05272119, -0.007339976, 0.044269916, 0.08912099, -0.008367649, 0.109594904, 0.016362242, 0.085492425, 0.022198437, 0.10049547, -0.0861574, -0.10657765, -0.06490288, -0.11299227, -0.047494505, -0.11965308, -0.0377037, -0.12583451, 0.0117690405, 0.017575257, -0.022128377, -0.010366264, -0.12696905, -0.045942914, 0.00039914149, -0.07803061, -0.09734068, 0.02459487, -0.053558566, -0.13312364, -0.019632092, 0.0058321436, -0.018689666, -0.040524412, 0.072877884, 0.07641679, -0.082749575, -0.07019471, 0.07994764, -0.058222238, -0.08042858, -0.03625314, 0.051234886, -0.07286409, -0.10105323, 0.09977207, 0.13370106, 0.033745456, 0.0041528, 0.11569436, 0.028751155, 0.06365059, 0.102149844, -0.086497314, -0.022029122, -0.08311739, -0.11794759, 0.009122987, -0.0053362004, -0.052207194, -0.0040586283, -0.041330475, -0.0067658206, 0.05360189, 0.0328667, 0.0074124313, -0.019086713, -0.14695273, 0.022152107, -0.050949536, 0.054688156, 0.099109106, 0.10085179, -0.036020726, -0.048055526, -0.011603505, 0.13919519, -0.0026628245, 0.09806228, -0.1351265, -0.13113317, 0.009127456, 0.032438483, 0.06309151, -0.022554265, -0.0061706686, 0.054405533, -0.07417282, 0.0048684394, -0.060684472, 0.038364723, 0.069173075, -0.06328508, 0.031657364, 0.080865026, -0.028958159, 0.04015278, 0.098458275, 0.07566652, 0.09439116, 0.033285644, 0.16863954, 0.099439554, 0.069212876, 0.15510401, -0.05453024, -0.122809485, -0.0563417, -0.06257605, 0.06308583, 0.12912595, 0.14281367, 0.041846782, 0.02611536, 0.081407845, 0.044620175, 0.0922642, 0.033115692, -0.0011714777, -0.071569756, -0.06697493, 0.05508479, 0.030468995, 0.09278045, 0.17973079, 0.1349005, 0.115843825, 0.09477758, 0.13907446, 0.040031165, 0.05485914, -0.17155547, -0.1524315, -0.023377655, -0.018801136, 0.040396806, 0.19892645, 0.11239708, 0.19800602, 0.08812654, -0.019739138, 0.07394428, 0.13348114, 0.06253138, -0.11784783, -0.1463168, -0.1950504, -0.12791295, -0.07356263, 0.06287323, 0.036475368, -0.05208853, -0.027722396, 0.08362749, 0.124349095, 0.06980102, 0.11165515, -0.049032014, -0.1499213, -0.16428557, -0.11556309, 0.15211801, 0.12781939, 0.09414772, 0.14595291, -0.03824935, 0.122631066, 0.07238743, 0.13834463, 0.026558591, -0.12496306, -0.18275596, -0.089486085, -0.10754677, 0.041653797, 0.04109787, 0.14895283, 0.11142349, 0.03762907, 0.048072223, 0.16688235, 0.11617736, -0.04513927, -0.052044142, -0.11326269, -0.051415432, -0.15855263, 0.11733894, 0.19718164, 0.18514712, 0.08191935, 0.07094398, -0.0043873303, 9.76096e-06, 0.20671034, 0.10964116, -0.009040061, -0.09598075, -0.18966468, -0.16737019, 0.00021590177, 0.12181722, 0.120747305, 0.050527718, -0.05261699, -0.057765998, 0.043386456, 0.09749648, -0.059150286, -0.058675483, -0.11958394, -0.044280954, -0.13998014, -0.018397229, 0.08340441, -0.019378161, -0.05829091, -0.057100154, 0.05209993, 0.0041447263, 0.15983653, 0.09181332, 0.04213164, -0.079593755, -0.059590563, -0.07806312, 0.051694028, 0.23831303, 0.1756558, 0.05156897, -0.035798747, 0.015191099, 0.10877167, 0.031620435, 0.04103244, 0.06869152, -0.11585722, -0.08457434, -0.040672913, 0.009413141, 0.13854043, 0.05046417, 0.07783325, 0.017214682, -0.02091353, 0.0073387325, 0.111891955, -0.003018741, 0.010474846, -0.0006306083, -0.123653956, -0.007072022, -0.057651468, 0.15915994, 0.09525443, -0.07338236, -0.04094703, -0.031017922, -0.075195566, 0.068575904, 0.0612994, 0.118625596, -0.064566076, -0.091646515, -0.018019896, 0.021687157, 0.13961254, 0.0032824366, -0.025827369, 0.021180438, -0.0096581355, -0.075295396, -0.039079215, -0.021021064, -0.009361275, -0.011288237, -0.0080186855, -0.118252754, -0.020151112, 0.05561892, 0.08841285, -0.08350685, -0.010644556, 0.06466138, -0.075781815, 0.033749465, 0.1200561, 0.120275505, 0.025012663, -0.0007808005, -0.053896144, 0.03150449, 0.023205701, 0.031308897, 0.026214464, -0.07164627, -0.024061361, -0.043259382, 0.015559576, 0.03541286, -0.046893705, 0.067048594, -0.01966548, -0.04884396, -0.062461562, 0.016929638, 0.045570146, -0.08699044, -0.007643319, 0.0012185243, -0.037073176, -0.09854966, 0.10391316, 0.088689186, -0.052005257, -0.007247354, 0.049185947, 0.08379349, 0.049403656, 0.0362858, 0.02481373, 0.05498274, 0.046712942, -0.10830004, -0.14493953, 0.118191525, 0.057126082, -0.08005594, -0.020126525, -0.06838025, -0.09406952, 0.017986584, 0.082560904, -0.085466065, -0.016659139, 0.2185589, -0.06711341, -0.054919284, 0.14222287, 0.018985426, 0.11242491, 0.04578487, 0.009848076, 0.07930326, 0.07187738, -0.012736129, 0.015388298, 0.039547525, 0.115843736, -0.15144932, -0.054518934, -0.018381037, 0.11818184, -0.013286702, 0.025459237, -0.013110055, 0.0029247948, -0.0135955075, -0.023949958, 0.095036305, 0.08170231, 0.03211423, -0.018778808, -0.09269451, -0.056009248, 0.06918203, 0.042228084, -0.06143312, -0.012811241, -0.007159301, -0.034354936, -0.030921917, 0.0010190025, 0.07111287, -0.09178939, -0.03181663, -0.004553892, -0.08720109, 0.07247808, -0.06136372, 0.0982931, 0.113948666, -0.02362806, 0.043076776, 0.008405493, 0.06501692, 0.08692877, 0.1100834, -0.064288504, 0.01452813, 0.11541098, 0.059956536, 0.086058594, 0.018942967, 0.014063347, 0.01339819, 0.026628777, -0.057599, 0.019688325, 0.036131512, 0.06770259, -0.101872444, -0.102055654, 0.16201885, 0.12678593, 0.15712099, 0.114124745, 0.13855088, -0.03146222, -0.10872035, -0.10954406, -0.011302142, 0.06804899, 0.071344435, -0.0922571, -0.026828839, 0.10215191, 0.111846134, 0.016493717, 0.015742261, -0.026158836, -0.01983126, -0.011965546, -0.09058484, -0.1556005, -0.09649024, 0.046646107, -0.14731869, -0.04946153, 0.14416178, 0.01657272, 0.05545436, 0.03294106, 0.13300137, -0.025655035, -0.16339526, -0.039629947, -0.12724563, -0.043038167, 0.008247339, -0.10800475, -0.040925764, 0.033497725, -0.011637271, 0.109724775, 2.1021599e-05, -0.0076587475, -0.0653794, -0.127379, -0.14858674, -0.13178998, 0.05899772, 0.06935155, -0.07935323, -0.029666528, -0.060513254, -0.07726069, -0.054703478, -0.013105018, -0.09044605, -0.1731207, -0.109657824, -0.09221238, -0.033890966, -0.067470334, -0.031167815, -0.025309779, -0.08610693, -0.018156722, 0.021944268, -0.052610096, -0.05552017, -0.15356143, -0.0471207, -0.16081233, -0.07841187, -0.066013485, -0.05543423, 0.112444654, -0.0785163, 0.047042828, -0.10651698, -0.021205733, -0.06351105, -0.024556927, -0.014547046, -0.056284294, -0.21735227, -0.15708083, -0.110519595, -0.027870271, 0.034218185, -0.059833426, -0.1127831, -0.037036344, -0.10979063, -0.07276732, -0.0063043297, -0.0314545, -0.1611848, -0.08984597, -0.17167783, -0.1490994, -0.10711285, -0.060316205, -0.01874994, -0.20579563, -0.020319518, -0.13380052, 0.05760726, -0.03166401, -0.06521792, -0.11492828, -0.13353889, -0.06652552, -0.09023638, -0.01464008, -0.14431328, -0.14649573, -0.14063264, -0.058958504, -0.08893794, -0.056497477, 0.058778383, -0.0510737, -0.0042511635, -0.10033175, -0.093185134, -0.082200095, 0.011566129, -0.10952416, -0.06258116, -0.058881488, -0.051706467, -0.022620257, -0.02206538, 0.049530834, 0.047696527, -0.09536074, -0.023539798, -0.123389065, -0.077439636, 0.026667343, -0.06759066, -0.04354616, -0.09186806, 0.054099794, 0.048596013, -0.042874314, -0.060956027, 0.011890095, 0.044165228, -0.07974045, 0.042084668, -0.07292282, 0.01193344, -0.05383377, -0.16409333, -0.046373747, -0.0142181385, 0.060664646, -0.055667296, 0.036937594, -0.0034947218, -0.010243499, -0.03370183, -0.08184847, 0.0082409205, -0.029999748, -0.089079864, -0.11952201, 0.00095543975, 0.012053045, 0.07623957, -0.043736298, 0.030184656, 0.051013265, -0.02621599, 0.04501326, -0.02474025, 0.049647387, -0.05917009, 0.04178706, 0.03587169, 0.038575213, 0.023010455, -0.06878549, 0.033319812, 0.09730329, -0.071164556, 0.060086966, -0.018296713, -0.08112872, -0.052684877, 0.03502946, 0.03003632, -0.058535025, -0.0010981214, -0.01569301, 0.042296823, 0.05836534, -0.09264739, 0.04811456, -0.03638306, 0.028432054, -0.03786663, -0.10991123, -0.100758545,
  -0.043017406, -0.02195003, -0.018520445, -0.016270341, 0.038049337, 0.06962719, -0.02270096, 0.047597963, 0.010119043, -0.019496195, 0.026038386, 0.008197043, -0.069271185, -0.06974893, 0.063844554, 0.024967486, 0.022360886, -0.03690213, -0.10231942, -0.023035364, -0.013671589, 0.052628152, -0.03447387, 0.0120074265, -0.087958924, -0.06493947, -0.01253523, -0.0304117, -0.09664686, 0.029113255, -0.09837312, 0.022721354, -0.0105534075, -0.059314247, -0.04398045, 0.054119278, 0.072483785, 0.062184475, -0.083930634, -0.07686481, 0.020565907, -0.05466663, 0.011264807, -0.025733078, 0.015842699, 0.055170495, -0.02568159, -0.01558512, 0.02985585, -0.03589006, -0.035795804, -0.014426816, 0.004897449, -0.10106066, -0.10360221, 0.017423999, -0.039149698, 0.0061299345, -0.032663554, 0.058104444, -0.083026335, -0.09197853, -0.087834075, -0.08258746, -0.100111745, 0.00024878734, -0.024705159, 0.052924257, 0.022441749, -0.055317014, 0.032145593, -0.02504353, -0.0410013, 0.03876426, -0.04582604, -0.087179616, 0.008653928, -0.041464068, 0.0685484, 0.04644566, -0.05715118, -0.092909224, -0.019483807, 0.051207207, -0.057993684, 0.006030836, 0.06869134, -0.02129485, -0.037073936, 0.059951507, -0.029092392, 0.010402543, -0.05815464, -0.08329058, -0.0075226184, -0.0551559, -0.026430208, 0.019656865, -0.04829369, 0.049979493, 0.062468372, -0.076313965, 0.023022301, 0.035505217, -0.10043048, -0.0364238, -0.064091556, -0.019439938, 0.043945312, -0.060887344, 0.00053582387, 0.06381854, -0.009291498, -0.08525546, 0.044682868, 0.020511571, -0.044564296, 0.011719286, -0.055030685, 0.036790177, -0.07140697, 0.05579464, -0.06388241, 0.06029998, 0.07062707, 0.06292811, 0.07131554, 0.030368524, 0.0545684, -0.055202477, 0.0062435344, 0.004883182, -0.0141679505, -0.017066423, 0.015774256, 0.042864457, 0.037624102, 0.012471959, -0.057698738, -0.027374368, 0.01648792, -0.046364088, -0.015813036, -0.016867036, 0.023496779, -0.0032792185, -0.05683743, 0.03042076, 0.052791744, -0.0009861882, 0.037319656, -0.0022880537, -0.092945375, -0.08645016, -0.0757058, -0.04386118, -0.0655245, -0.07302811, 0.05292561, -0.06148945, -0.06634767, 0.07317804, -0.02092837, 0.031396408, 0.040973052, 0.07491091, 0.039866403, -0.07571912, 0.05642331, 0.0074186665, -0.040573593, -0.014543123, -0.035797756, -0.09354724, -0.037713192, -0.10111173, -0.07965958, 0.0060671614, 0.018403215, -0.03702508, 0.050961282, -0.045232523, 0.067267045, -0.022147259, -0.004701334, 0.0003489941, 0.00080607494, 0.07101914, -0.011392086, -0.093398646, 0.033689458, -0.02790238, 0.034345914, -0.0011640331, 0.045637026, -0.07249078, -0.053989988, -0.04873431, -0.0013096213, -0.05772782, -0.059003588, -0.088401124, -0.05787662, -0.06855627, 0.064713426, 0.014176115, -0.06692227, 0.038582228, -0.05872133, -0.05018748, 0.0355205, 0.06114588, 0.05713593, 0.0210545, -0.06490562, 0.024603557, 0.028978733, 0.0528419, -0.06814144, 0.0035189025, 0.04580667, -0.10048467, -0.0365543, 0.0052912454, -0.005836291, 0.007064907, 0.0018427522, 0.06564467, -0.06485476, -0.01585727, 0.011689021, 0.03639436, 0.03544007, 0.061996263, -0.020229304, -0.075903185, 0.029849913, -0.08537979, -0.05757339, -0.098523766, 0.04276809, 0.033651393, -0.008748128, -0.030279161, -0.032395672, 0.056892585, 0.021214506, -0.021833958, -0.022906443, -0.07884761, -0.03503825, -0.030717049, -0.035216257, -0.06501992, -0.08176702, -0.027513446, 0.057535585, 0.049626216, -0.081869185, 0.033494458, -0.033343066, -0.014180427, 0.03268877, 0.03901888, -0.05672302, -0.05555829, -0.0984956, -0.01204851, 0.0469679, 0.059009366, -0.040638246, -0.08423794, -0.045610838, -0.0143639585, 0.04415374, 0.00711388, -0.014045837, -0.07323432, -0.060474772, -0.054169167, -0.08832542, -0.059515357, -0.08841619, 0.063368134, -0.053391483, -0.00970367, 0.012370057, -0.045684714, 0.046922375, 0.0065444293, -0.09443924, 0.047096178, 0.07100973, -0.06812813, 0.03824658, 0.053025328, -0.058581565, 0.023531199, -0.03105041, 0.01522994, -0.09382704, 0.039001632, 0.024414329, 0.02242094, -0.038588252, 0.025923729, -0.04044396, 0.0684755, -0.09113338, -0.06802494, 0.016516587, 0.05518198, -0.09017663, -0.027722172, -0.037184604, -0.05951361, -0.034054887, -0.09386101, -0.09668169, -0.036041632, 0.027801873, 0.055354804, -0.08869148, -0.0033220986, -0.06505971, -0.078619905, -0.08044445, 0.06625546, -0.038243275, -0.03943691, 0.017769177, -0.06599574, -0.021854512, 0.07125517, 0.02933124, -0.006818049, 0.06694048, -0.041676298, 0.022898728, -0.066302374, -0.09159133, -0.03289708, 0.053148713, 0.012694004, -0.07728892, -0.091448985, 0.025566421, -0.09027632, 0.03948213, 0.053979684, -0.07624847, 0.07343441, -0.026561234, 0.033940677, -0.038844943, -0.09325412, 0.052412488, -0.026605701, 0.017465461, -0.016177708, -0.07005569, 0.06379722, -0.06619247, -0.064746946, -0.07278959, -0.023766117, 0.01884129, -0.0795487, -0.044400163, 0.012287724, -0.08340652, -0.044705033, -0.081155956, -0.034980338, -0.047694616, 0.05528192, -0.024811864, -0.038590766, -0.080313586, -0.07685388, -0.09419327, -0.092241116, -0.023040807, -0.07964071, -0.011086838, 0.076327905, 0.03960846, 0.0032766114, 0.07165526, 0.01842866, 0.025579182, 0.039432537, -0.013386505, 0.02220538, -0.013426728, -0.08410542, -0.08163009, -0.02753587, -0.03439808, 0.013368412, -0.08379779, -0.008244985, -0.061016828, 0.07373289, -0.049025122, 0.06813887, 0.029623076, -0.09257213, -0.073760465, 0.079672314, 0.06484016, 0.056685984, 0.0576947, 0.048836257, -0.035551373, -0.051144786, 0.06426003, 0.00478603, 0.05949156, 0.008962835, 0.010762764, 0.024113419, 0.07398733, -0.046002626, 0.03870205, -0.09270661, 0.04016109, -0.042865325, -0.07558819, -0.08911568, -0.035058122, -0.08245888, -0.059217703, 0.07880004, 0.00033703374, 0.046991855, -0.0107659055, -0.06423838, -0.028770542, -0.095680155, -0.013042678, 0.06881351, -0.073212124, -0.040437106, 0.047988743, -0.08629738, -0.00084016443, -0.054378625, 0.07398421, -0.02678261, -0.093986414, 0.055565324, -0.017796827, 0.042232666, -0.04180607, -0.059862535, -0.0033216968, -0.028343925, -0.04643084, 0.026505431, -0.030541979, -0.032673012, 0.027399661, 0.058717582, -0.049784396, 0.035329632, 0.029535243, 0.055708855, 0.00793935, 0.06732963, -0.09165791, -0.012947534, 0.06487175, 0.00555892, -0.04469497, 0.027229825, -0.09652062, 0.05906949, -0.038582377, 0.014197967, 0.0043657445, -0.037376143, 0.04657729, 0.07625002, -0.0064270496, 0.0789479, 0.009599096, -0.0027015088, -0.06397468, 0.024156166, 0.058768764, -0.04524647, -0.022709994, -0.087319165, -0.034593213, 0.0023891404, 0.04974893, 0.06535113, 0.05296295, -0.021884298, 0.045394152, 0.063335426, 0.03360329, 0.051817987, -0.012771332, -0.088696964, 0.012511192, 0.006278678, 0.07676859, 0.0035288741, 0.06763131, -0.032095198, -0.008031881, -0.0491367, -0.020613974, 0.018829634, -0.015274929, 0.044045206, 0.022207003, -0.046337094, -0.09483097, 0.06382128, -0.0081645, -0.07693594, -0.016367901, 0.017305026, 0.02923028, -0.013691191, -0.011183246, -0.02450528, -0.009727795, -0.069075495, -0.032075603, 0.033596706, 0.079492696, 0.03493714, 0.06072753, -0.05558116, -0.06967417, 0.06865853, -0.016664736, 0.051032934, 0.05437463, -0.08367418, -0.004419346, 0.05018264, -0.009351708, -0.032236792, -0.060416456, 0.014514655, 0.07039677, 0.011955134, -0.044959478, -0.025895163, 0.08118054, 0.0066433637, -0.006392606, -0.05097289, -0.07458292, 0.034104824, 0.06876897, 0.04262743, 0.038383257, 0.04110472, 0.051955603, 0.06256402, -0.08548769, -0.03997532, 0.053559627, 0.059035666, 0.004015272, 0.068839245, -0.03074213, 0.061892062, -0.01977789, -0.0072125285, -0.034774214, -0.009636716, -0.021555392, 0.043481678, -0.046447426, -0.08297181, -0.03427692, 0.027652968, 0.05998938, 0.069196776, -0.060835667, -0.037896216, -0.08633432, -0.064918704, 0.07721365, 0.05937705, 0.011494437, 0.03322665, 0.0021938884, 0.025250036, -0.038377777, -0.0030252778, -0.03296169, 0.012475719, -0.00351926, 0.043462187, -0.06834293, -0.013221662, 0.043331727, -0.06185434, -0.034496367, -0.045139186, -0.051631257, -0.014097943, -0.059130907, -0.04067135, 0.017776215, -0.08318917, -0.08809581, -0.002100128, -0.0216778, -0.09063869, 0.064246744, -0.08456821, 0.07609575, -0.01002341, 0.06921584, 0.06747683, 0.06235927, -0.009980704, -0.04250259, -0.00036657404, -0.053342234, 0.06774983, 0.038938068, -0.0064446107, 0.0120972805, -0.064270735, 0.02159973, 0.07163108, -0.08710933, -0.06519164, 0.08064549, 0.07148701, 0.0080710715, -0.039562054, 0.074323274, -0.08314072, 0.02375456, 0.010670514, -0.03732125, -0.0008540793, 0.043993995, 0.06071955, 0.06275188, -0.08338808, 0.0789554, -0.06999925, 0.052363485, 0.021122793, 0.025724372, -0.07784246, -0.050784696, -0.023905285, -0.08804582, 0.07970705, -0.0074336873, -0.03493792, -0.01953276, 0.03418234, 0.05539244, -0.018234316, -0.02130434, -0.07161599, 0.023785934, -0.08108266, 0.08054578, -0.0733644, 0.050547708, 0.040207162, 0.052962217, -0.07490162, -0.02614625, 0.041810036, 0.019508062, 0.06252628, 0.05413, 0.06257639, 0.030803634, -0.07280972, 0.006631624, 0.034713387, 0.06740388, 0.08251394, -0.06605951, 0.023795351, 0.05063174, -0.03904931, -0.057389654, 0.065779425, -0.0031376015, -0.04451205, -0.057311293, 0.03194067, 0.03435328, 0.018021667, 0.0076815425, 0.056037657, -0.045584768, 0.00313768, 0.007377429, 0.04102113, -0.0845119, 0.070687726, -0.015396707, -0.0032530304, 0.005705037, -0.002378606, -0.046695795, 0.023590716, 0.06582769, -0.050760023, 0.056600288, -0.058158055, -0.06237743, 0.027465746, -0.08584995, -0.005974262, 0.07036946, -0.06135894, 0.034004137, -0.019062875, 0.07586328, -0.0772051, -0.015735846, -0.0111197885, 0.06973583, 0.03011898, 0.03396423, 0.08041567, -0.05757063, -0.052467175, 0.07018882, -0.0077301124, -0.0644216, -0.08974752, 0.0742495, 0.04455953, 0.051387846, 0.058843996, -0.043132395, 0.039279003, -0.042438403, -0.012356902, -0.06440397, -0.061696608, 0.0006485319, -0.09135802,
